#pragma once

inline constexpr int N_INPUTS = 5;
inline constexpr int N_LAYERS = 3;
inline constexpr int LAYER_SIZES[] = {256, 256, 256};
inline constexpr float INPUT_MEANS[] = {-0.21484518, 0.32106814, -0.019214123, 0.070812084, 6.3709137};
inline constexpr float INPUT_STDS[] = {0.46568395, 0.42747023, 0.97847607, 0.78318233, 4.5476976};
alignas(64) inline constexpr float W0[] = {-0.035545832, 0.084855462, -0.10369178, -0.033006139, -0.092383916, -0.10165446, -0.128398, -0.035989297, -0.088641187, 0.018317167, -0.0088724154, 0.044751268, -0.10387085, 0.094634114, -0.10323171, 0.025024069, 0.010040401, 0.0076638458, -0.043066642, -0.0093638576, 0.058705875, 0.16994959, -0.02994703, 0.034366995, 0.12342525, 0.093745229, -0.14489968, -0.097299968, -0.10417675, 0.13402877, -0.10287803, 0.0088487113, 0.17552986, 0.024987412, 0.074695658, -0.062655623, 0.041685589, 0.0075291307, -0.1288953, 0.035442664, 0.16388005, 0.079619711, -0.054167593, 0.14135162, -0.1451432, -0.10046954, 0.12522429, -0.042739842, -0.044972886, -0.086325237, -0.098647139, 0.05726553, -0.068482466, -0.11343617, 0.025656625, -0.13952061, 0.012382764, -0.096499568, 0.02227644, 0.028333301, -0.087305822, -0.011268832, 0.058802232, 0.019823018, -0.13702133, 0.035688318, 0.041109261, 0.019561696, 0.11416701, -0.0088561618, 0.14256576, -0.11531768, -0.10031619, 0.1317208, -0.0016393183, -0.11518316, 0.10015951, -0.059662736, 0.098103765, 0.085267821, 0.080780968, 0.053574129, 0.15346695, 0.0057543213, -0.031476909, 0.11430236, -0.056530439, 0.12768071, 0.046879358, 0.036636173, -0.097087929, 0.1645129, -0.12842348, -0.027460388, 0.034218652, -0.097606779, 0.14146892, 0.024822192, -0.10960752, -0.0023160894, -0.073363269, 0.0026619152, 0.13622463, -0.086646954, 0.098177714, -0.0057222816, -0.1660185, 0.14163807, -0.044958162, 0.12538767, -0.11095733, -0.173764, 0.095101699, 0.057495269, -0.061338085, 0.065408182, 0.086004109, 0.13970789, 0.050909654, -0.040772979, -0.17769337, -0.14308295, -0.12951225, -0.068444268, 0.011458609, 0.0060703183, 0.041114434, 0.10751149, -0.10304096, 0.002097912, 0.015512715, 0.15573144, 0.040412574, -0.073641078, 0.099083345, 0.0024172498, 0.067585684, -0.031061514, 0.1420597, 0.10298497, -0.02407594, -0.10864535, -0.12716682, -0.11959562, -0.15085585, -0.057171512, -0.10646817, 0.0080548723, 0.033359917, -0.14756385, -0.10272771, 0.10480456, 0.058734683, -0.058145229, -0.048501642, 0.079716209, -0.0804064, 0.0030564976, 0.19827278, 0.10100824, -0.040935254, -0.0070541781, 0.11067321, 0.11134819, -0.14661309, -0.074993568, -0.11984586, 0.01526821, 0.077953331, -0.018264111, -0.029668825, 0.20543267, 0.054660696, -0.0701918, 0.0094890445, 0.059354319, 0.061007971, -0.0089475152, -0.13511578, 0.02482675, 0.0073519689, -0.081073432, 0.069927678, -0.086315119, -0.088415018, 0.07814684, -0.11677224, 0.03112071, 0.0095723175, 0.13161945, -0.11278062, -0.172076, 0.074606866, 0.076966166, 0.097450658, 0.11655538, -0.11020556, -0.059779367, 0.02560354, 0.086313727, 0.12311283, -0.012024915, 0.15877115, 0.043800359, -0.040171419, -0.030685814, 0.033547259, 0.016962847, 0.11837561, 0.14974827, -0.018342348, 0.15133769, -0.1032176, -0.13109788, -0.10197893, 0.022346693, -0.14332196, 0.17881205, 0.052365966, -0.10991911, -0.08117324, -0.02385009, -0.10060021, 0.095252884, -0.019124385, 0.12752443, -0.0033996914, 0.076361099, 0.10864755, 0.14496909, 0.011059577, 0.024041594, 0.092735673, -0.018893979, -0.0084057794, 0.0024204483, -0.12577821, 0.0097853661, -0.011037336, 0.047194039, -0.084335127, 0.11249927, 0.038153431, -0.1122484, 0.14327087, 0.038986744, -0.1553843, -0.020774588, 0.074722135, 0.12864988, -0.17885722, 0.15548093, -0.090793255, 0.074651753, 0.074577651, 0.1573027, 0.0023392661, 0.043198118, -0.0092696581, -0.034931582, 0.057966473, 0.094370157, 0.076790423, 0.030424479, 0.099126424, -0.029926589, 0.031584806, -0.029726123, -0.07315018, -4.1756477e-05, -0.037913829, -0.013788821, -0.013480252, -0.0076806596, 0.10998477, 0.05022294, -0.090570943, -0.032648585, -0.042718509, -0.0025291044, 0.095351221, 0.11773027, 0.027487542, -0.056207138, -0.10429817, 0.10248395, -0.0017934989, 0.12226915, 0.011741955, 0.07033934, -0.018572648, 0.043376678, -0.001199044, -0.026482428, -0.047995368, -0.1485545, -0.015477981, -0.081286512, 0.13625678, -0.053568792, 0.10953204, 0.10723673, 0.033341866, 0.01511147, -0.075756469, -0.03452628, -0.062987435, -0.12177905, -0.032688291, -0.10367415, 0.14763675, 0.11571409, -0.028350494, -0.078624673, -0.12194818, -0.014765694, 0.091991786, -0.074840333, -0.036049592, 0.12913018, -0.040145108, 0.0041240179, -0.084040835, -0.10919614, 0.045315367, -0.015056691, -0.098277689, -0.0051515776, -0.010619041, 0.079797759, -0.14086239, 0.078869047, -0.067768067, -0.027398965, 0.077825877, -0.12142324, -0.039836593, 0.10926015, 0.11485394, 0.041194457, 0.07276295, 0.17074047, 0.047600781, 0.11449595, -0.076015569, 0.036868287, 0.044433385, -0.0058590732, 0.12782192, -0.087544055, 0.097406616, 0.044247422, -0.053342256, -0.053881384, 0.019255138, -0.0022966928, 0.050000397, 0.0019574862, 0.074147399, 0.18243171, -0.04310592, -0.097231759, 0.12581499, 0.060659195, 0.16394518, 0.056226375, 0.13337093, 0.01297649, 0.027967354, -0.1242035, -0.056167092, -0.10015206, -0.065578518, 0.082909623, -0.07403682, -0.035520531, 0.097425525, 0.065929089, 0.080036925, -0.070646182, -0.0097533378, 0.010011564, 0.19745448, -0.079330732, -0.075165042, -0.042346935, 0.05940226, -0.011850365, -0.064047516, -0.0027419485, -0.067382151, 0.021438112, -0.054196594, -0.11519509, -0.015635618, 0.048756942, -0.085374516, 0.11454212, -0.041623405, 0.05970521, 0.16514987, 0.024476484, -0.097786544, 0.083371666, -0.026984945, 0.12351636, -0.070466776, -0.046934401, -0.07630843, 0.0018979418, -0.084418074, 0.016366816, 0.10677131, 0.068876837, 0.085145163, -0.02906712, 0.10348053, -0.033068703, 0.068189877, 0.041047984, -0.12837342, -0.054020603, -0.1149635, -0.1101301, -0.012143579, -0.12043733, -0.15256211, 0.094747908, 0.029918869, 0.045721111, -0.0094188177, -0.015654984, -0.017439586, -0.013651353, 0.086014263, 0.019409396, 0.059329986, -0.058166633, 0.055270811, -0.10406875, 0.043797438, -0.17015237, 0.054002265, -0.11866861, 0.10082017, 0.13760104, 0.063070916, 0.12377007, -0.16059413, -0.094138021, -0.075717279, 0.023944717, 0.086247803, 0.15344423, 0.10396835, 0.088440697, 0.14119022, -0.081686928, -0.048113732, -0.060272466, -0.11969023, 0.1278283, -0.10459417, -0.057712242, 0.11852279, -0.034928465, 0.14292943, -0.041894228, -0.0028325436, -0.080063181, 0.065386002, 0.010999377, -0.030905544, 0.028676992, 0.15722668, -0.12651314, 0.02119638, 0.1323067, -0.10893749, 0.020072266, -0.099199898, 0.066664603, 0.0069802114, 0.059115257, -0.072754318, 0.011110122, -0.059230491, -0.11634766, 0.0070384247, -0.097019434, -0.0030512411, 0.15809957, 0.043632089, -0.12300964, -0.018858831, 0.11705088, 0.041427921, 0.092877157, 0.095538322, -0.10655864, -0.12491067, -0.059508403, -0.084403138, -0.14299647, 0.042743042, -0.01182296, 0.079834657, -0.063682645, 0.066091704, -0.003997213, 0.070495218, -0.03526891, -0.025596126, -0.20030979, 0.10494115, 0.030717448, 0.031139589, -0.12160552, 0.01094644, 0.2519294, -0.029548836, -0.036845258, 0.19137019, 0.25215627, 0.073811429, -0.14726893, -0.13917179, -0.18594933, -0.0089167649, -0.085771938, 0.32517747, -0.041313652, 0.10617451, 0.16756594, 0.16044928, 0.11427694, -0.019306698, 0.022233811, -0.183333, -0.06883916, 0.055719818, 0.11105028, 0.0018849291, -0.016485916, -0.16512519, -0.13470044, 0.20547431, 0.09506654, 0.27962369, -0.16354052, -0.10313102, -0.0012308628, 0.085782977, -0.12392503, -0.17246901, -0.25948628, 0.010833024, 0.06368593, 0.14601063, -0.045803946, -0.23587947, -0.025929446, 0.11858098, -0.18191085, 0.085988003, 0.075798155, 0.0104788, 0.18827946, 0.09273178, -0.089270597, -0.028795009, 0.22377806, 0.1947642, 0.088142107, 0.17623278, 0.017990549, -0.096450172, -0.0020685401, 0.10924265, -0.0646728, 0.081755692, -0.23053054, 0.061192259, -0.088366198, 0.094897913, -0.14234656, 0.025496948, -0.022353233, -0.085208611, 0.088470372, -0.13945833, 0.12610076, 0.079115807, -0.063295674, -0.091471054, -0.082517512, -0.050001727, -0.067599654, -0.2068499, -0.12151035, 0.046212121, 0.20302935, -0.15608333, -0.20802519, -0.086173697, 0.0099866239, 0.11865031, 0.067549962, 0.078333132, 0.1563841, 0.019846578, 0.22104351, 0.057309335, 0.083820816, -0.20730923, 0.2045732, -0.20588758, -0.052836532, -0.034795, -0.230874, -0.17227798, 0.007489338, -0.12551714, -0.012703394, 0.035042426, -0.056656497, 0.056696633, 0.025758756, 0.082072295, 0.13440279, -0.037994027, 0.10028065, 0.3112737, 0.018640413, 0.04301773, -0.14307817, 0.11590931, -0.10267536, 0.00047826255, -0.16469723, -0.094979978, 0.26094094, 0.025226634, 0.098975188, 0.021782869, -0.18013233, -0.12743057, -0.21049104, -0.024605412, -0.035691287, -0.039289285, -0.17888332, -0.011178155, -0.11935838, 0.1025218, -0.090241065, 0.14061367, -0.19603077, 0.17047824, -0.24351642, 0.13344014, 0.0656488, -0.10284242, -0.0046232975, -0.069505814, 0.11432952, 0.10622516, -0.14223514, 0.22105545, -0.30524393, 0.23158473, 0.065818054, -0.039710977, 0.069915901, 0.044413223, 0.18940646, -0.037999407, -0.10152788, 0.23694778, -0.15044845, 0.038650885, -0.12059263, 0.0056870968, 0.32628616, -0.13143136, 0.030556525, 0.1842662, -0.0060068649, -0.043337179, 0.10723935, -0.19013775, 0.20254996, 0.19252083, -0.13271877, -0.084090111, -0.040652175, -0.063311638, 0.052122628, 0.019514882, -0.053507639, -0.19292174, -0.17505086, 0.01156525, 0.033133151, -0.11787083, -0.1141138, 0.046536505, -0.0058213089, -0.11698982, 0.10083028, -0.070057146, -0.048558253, 0.14184798, -0.026902883, 0.10738353, -0.022107719, 0.081319888, -0.095427588, 0.10445224, -0.1232916, -0.20761305, 0.10476159, -0.054982718, 0.12083205, 0.031997712, 0.018141405, 0.1985546, -0.17449606, 0.060259467, 0.14904323, -0.093695045, -0.03503096, 0.25668267, 0.0440378, -0.047594443, -0.072512794, -0.016740294, -0.00011687939, 0.34492953, -0.19515082, 0.20151157, -0.1360384, -0.032593399, 0.12889115, -0.28824131, -0.057577621, 0.13683522, -0.058260465, -0.073178436, 0.021906281, 0.0047593257, -0.17256544, 0.22478081, 0.1926802, -0.01820958, 0.15387439, -0.14866298, 0.042324605, -0.023027371, 0.0029168961, -0.15431563, 0.19986106, -0.092547399, -0.22161057, -0.16623314, -0.19811634, -0.061380972, -0.022398976, 0.39610496, 0.013598974, 0.089262443, 0.15454594, 0.060846547, -0.11621287, 0.11795201, -0.21444096, 0.06973358, -0.46933006, -0.0012529532, -0.096956141, -0.041140811, 0.22666311, 0.017934716, 0.31746349, -0.036480885, -0.03892234, 0.26062801, -0.010330464, -0.11977789, 0.14013215, -0.061169931, -0.031592611, -0.090776922, 0.11574372, -0.095197121, 0.048420584, -0.054531383, 0.061426228, -0.063048523, 0.16249276, 0.16796634, -0.12091705, 0.069383033, 0.26912139, -0.037179176, 0.18063097, -0.031134441, 0.095635666, 0.044282666, -0.36024627, -0.2315361, -0.072751457, 0.14630889, -0.17108441, 0.14070987, -0.034814749, -0.10553867, -0.13707569, 0.17628358, 0.12173727, 0.18995416, -0.064493979, 0.011620503, -0.18500375, -0.17388377, 0.075835513, -0.018605858, -0.30211261, 0.12911335, 0.025023129, 0.082634068, 0.20383027, -0.028018911, -0.23561129, 0.045081235, 0.13791663, -0.21829788, 0.060808395, 0.011099171, 0.20039604, -0.1922254, -0.09082259, -0.0045569031, 0.41636556, 0.17541967, -0.13018593, 0.038956998, -0.22993996, 0.013582048, -0.099991695, 0.09387598, 0.12869211, 0.00647924, -0.13458792, -0.013894622, 0.21685051, 0.30125359, 0.095489455, -0.16002807, 0.050399719, 0.014531786, 0.24396021, -0.10860868, 0.14152227, 0.15798136, 0.19594222, 0.010757687, 0.23667163, -0.23690405, 0.29405991, -0.23537507, -0.18260183, -0.040381464, -0.19012178, 0.079268734, -0.25902986, -0.18060811, -0.069830031, -0.027706411, 0.022100225, -0.053773659, -0.13216245, 0.14466792, -0.091622001, 0.21101237, 0.045882248, -0.088496207, -0.59784972, 0.067543854, -0.0098144812, -0.10514609, 0.019132184, -0.16722355, -0.014626465, 0.12144691, -0.092097633, 0.095817911, 0.011852101, 0.23863039, -0.067589208, -0.31061968, 0.27472436, -0.15548171, 0.19584113, 0.043624451, -0.068547613, 0.2335516, -0.28034447, 0.18085642, -0.17362734, 0.014621759, -0.049920644, 0.12040956, 0.25995582, 0.23527914, -0.11240174, 0.073084106, 0.17045951, 0.049769576, -0.015338924, -0.22857889, 0.00075173859, -0.15706267, 0.017186772, -0.0030808823, -0.06611362, 0.18290999, -0.03615646, -0.055892336, -0.049948099, -0.099561444, 0.01877163, -0.14772479, -0.10940609, -0.0068680515, 0.2411367, -0.10011459, 0.21962206, 0.0011605868, 0.21172059, -0.2252599, -0.2141934, -0.27920511, 0.035662476, -0.10036571, 0.19568265, -0.12557175, -0.18017139, -0.25003685, -0.067294808, -0.055873056, 0.1929501, -0.17657243, -0.13543402, -0.21935955, -0.13749543, 0.062459088, -0.14832966, -0.092831958, 0.060766396, 0.22592648, 0.074832941, 0.028921804, 0.16082111, -0.23663431, -0.23014631, -0.057398049, -0.1030894, 0.33551212, 0.15548986, 0.016755848, 0.20402676, -0.026479598, 0.17381261, -0.048778625, -0.12236712, -0.1521005, -0.075513599, -0.17977919, 0.15958162, -0.12998403, -0.12397083, 0.29854659, -0.22544745, -0.062031246, 0.10517114, 0.0013524193, -0.20475141, 0.1415054, 0.1008716, 0.27604254, -0.12126622, 0.18965335, -0.063101627, -0.034897084, 0.20433287, -0.24831366, 0.16337555, -0.12945023, 0.17464751, -0.22758967, 0.18275981, 0.0067526907, 0.10554198, -0.010846864, 0.001737932, -0.14450274, -0.15744462, -0.23904063, 0.14173622, -0.027187265, -0.010819758, 0.18089902, 0.023676245, -0.14319607, -0.098257868, -0.17813476, -0.22313394, -0.14694631, 0.094618303, 0.011978235, 0.08265653, -0.091531668, 0.16907512, 0.019564919, -0.192444, 0.073204894, 0.14006868, 0.077356536, 0.086564034, -0.36044871, -0.011811533, -0.31388939, 0.0061207623, 0.091559342, -0.13541342, 0.0051767418, -0.055986082, 0.17811671, 0.12113075, -0.36232798, -0.017831195, -0.16089142, 0.23831367, 0.15590254, 0.032265049, 0.14948391, -0.10680076, 0.12038114, -0.040780861, -0.075801977, 0.18369349, 0.01689779, -0.14133474, 0.17021748, 0.13977765, -0.02808769, 0.15152741, -0.13838843, -0.039520591, 0.10437044, -0.07404082, -0.1138349, 0.081861088, 0.035178044, 0.015394443, -0.064713335, -0.1411893, 0.12408256, -0.084419083, -0.12967069, 0.20760076, -0.1262149, 0.188081, 0.13157342, -0.015524582, 0.069872777, -0.0089426255, 0.024738963, 0.04468616, -0.19304973, 0.18374365, 0.035517212, -0.14352547, -0.1790736, 0.053547855, -0.10404295, -0.15204787, -0.096861995, 0.068500677, 0.040335721, 0.10846735, -0.11456305, 0.029477541, 0.059902952, -0.012817725, -0.13932712, 0.11774108, 0.13613344, 0.032972867, -0.046900418, 0.13633294, -0.15622702, -0.0072574137, 0.12631804, 0.0011175186, 0.079471365, -0.025132365, 0.046305341, 0.1006938, -0.059882729, -0.14600691, 0.040753364, -0.050229795, -0.11665845, 0.047271495, -0.13650544, -0.089706634, 0.10079015, -0.12490921, -0.013766585, -0.18753273, 0.15193098, 0.0034554282, -0.015775646, 0.11931622, 0.0063146376, 0.021172051, 0.0017607014, -0.10651702, -0.076958765, -0.033332209, -0.028820313, 0.0020335707, -0.025641747, -0.18510154, 0.1468317, 0.092003904, 0.11562004, 0.023056399, -0.13262801, -0.030381737, -0.10750173, 0.058773506, -0.13879217, 0.11773096, 0.032897537, 0.077332184, -0.0014924091, -0.19793371, 0.022926956, 0.15737152, 0.10867801, -0.16872109, -0.087291064, -0.018088574, -0.054407685, 0.063783082, 0.040271159, 0.083095628, -0.047380489, -0.15043645, -0.10011482, -0.0027759805, -0.026388942, 0.062429643, -0.094827607, 0.095944277, -0.080261388, -0.12195061, -0.092017931, 0.004011502, -0.11191179, -0.13654825, 0.051938562, 0.13919388, -0.095479206, 0.08837053, -0.11610511, 0.14272506, 0.01300188, -0.0097623058, -0.1103758, 0.047034934, 0.11783819, -0.087857735, 0.12896031, 0.12988772, -0.047532964, 0.052305978, 0.15251404, -0.14649156, 0.13828343, -0.058081151, 0.12910644, -0.012074419, -0.048798135, -0.11008078, 0.039778207, 0.13061114, 0.078636266, 0.054742581, 0.094394364, -0.018140208, -0.106739, -0.028225515, -0.064310672, 0.20408649, -0.036662946, 0.15874895, -0.011805885, -0.14261677, -0.12708237, -0.090531009, -0.31175314, -0.02385448, -0.025925104, 0.151526, 0.1576466, -0.14157168, -0.080047642, -0.036512932, -0.025492456, 0.094605039, 0.0006123136, -0.0005078981, -0.077770139, 0.084299411, -0.16341473, 0.15266704, -0.074581717, 0.060820903, -0.062380423, 0.14122785, -0.20991868, -0.036838095, 0.15057874, -0.034809922, -0.090310364, -0.089121876, -0.15940726, -0.11347413, -0.11325112, 0.071738115, 0.14989542, 0.055854031, -0.028107163, 0.12329326, 0.0047462697, -0.07757452, -0.0014080566, 0.099096803, -0.037827934, -0.029491545, -0.14485548, 0.10039397, -0.13049708, -0.028548704, 0.075663796, -0.083782111, -0.13353788, 0.1206018, 0.077462234, -0.02639986, -0.014853079, 0.02318056, 0.015611951, -0.034374647, -0.17488543, 0.14110505, -0.048190526, 0.072870992, -0.012587038, -0.00046879537, -0.0014173135, -0.046557993, -0.06462149, -0.11985016, -0.48930304, -0.059361571};
alignas(64) inline constexpr float B0[] = {0.10643213, 0.024561991, 0.034843171, -0.15325774, 0.030550702, -0.044438174, -0.11791389, -0.067036252, -0.14263018, 0.10441043, 0.12566652, 0.10735241, -0.082716321, 0.096842478, -0.038879106, 0.1365485, -0.039561212, 0.021932408, 0.063359716, -0.18147269, -0.0011056134, -0.05707497, 0.02707453, 0.075795244, -0.067545111, -0.006371429, 0.069721469, -0.014401392, -0.081555868, 0.068381737, -0.050130521, -0.12779833, -0.053285605, -0.045681432, -0.069702772, 0.12934259, 0.051813749, 0.063027025, 0.060402465, -0.012442804, 0.0067383172, 0.10167094, 0.10733367, -0.09547222, -0.070092438, -0.14088806, 0.12138756, -0.11916158, 0.045803604, -0.16786765, -0.10871926, 0.013592738, -0.12060201, -0.088245131, 0.014286576, -0.069012967, 0.037895612, -0.037063886, -0.022887636, 0.075938683, 0.051055183, 0.00097930578, -0.026581232, -0.048577562, 0.031786103, 0.073719572, 0.010381074, 0.12025241, -0.03030715, 0.099340715, -0.14822125, 0.0552428, -0.018175264, -0.16729278, -0.12336041, 0.04128748, 0.11690067, -0.12454632, -0.012065213, 0.085283158, 0.034153609, 0.067725994, -0.14072222, -0.08649735, 0.047549639, 0.085055374, 0.0038935183, 0.084272945, 0.11228122, 0.1303413, 0.14670939, -0.086331047, -0.10097707, -0.17332351, -0.18369483, 0.16469089, -0.13648242, 0.077393967, 0.034811805, 0.014707199, -0.080051147, 0.03542934, -0.079822047, 0.078960704, 0.025760508, -0.17956056, -0.05221334, -0.055131815, -0.15882876, 0.11823402, -0.015614318, -0.030297444, 0.083451724, -0.03638521, -0.10512055, 0.087631511, 0.12924298, -0.0097913653, 0.079025397, 0.074301849, -0.022651957, -0.085377456, 0.02387929, -0.049979943, 0.0167449, 0.1203614, 0.051226546, -0.057031562, -0.16241572, -0.128978, 0.021349229, -0.047739682, 0.082100038, 0.1047224, -0.098760165, 0.086006325, 0.11209291, 0.085769434, -0.14112277, -0.11280064, -0.13323466, -0.075439426, -0.16859642, -0.078464908, -0.057518582, 0.15450076, 0.010895449, -0.059870228, -0.007537586, 0.017637581, -0.15862418, 0.030182118, 0.096334965, 0.11133084, 0.061669811, -0.059415284, -0.049710133, -0.097204424, -0.08708349, 0.12030977, -0.078206556, 0.10799618, 0.10993236, 0.11923545, -0.092765381, 0.088899704, 0.030633092, -0.13683582, -0.059889448, -0.14588054, -0.074118323, -0.14212504, -0.043134171, -0.085450136, 0.018265519, -0.019312323, 0.088712255, -0.12555361, -0.0057553366, -0.16522606, -0.0029864748, 0.079742731, 0.10497473, -0.15262612, -0.10507843, -0.084162464, -0.14141923, -0.17940608, -0.0010382447, -0.12368475, -0.11589199, -0.012004144, -0.064830311, -0.094440182, -0.030800613, -0.08550842, 0.035792025, -0.030137071, 0.029520765, -0.071911252, -0.054545112, -0.11725498, 0.12325695, 0.086724875, 0.083087792, -0.10323475, 0.12346234, 0.10774806, -0.027647804, -0.094027676, 0.037614178, -0.11864086, -0.053495467, -0.10794175, 0.10670976, 0.0082903262, 0.08308946, 0.015206748, 0.012559409, 0.079047438, -0.14859112, 0.0075819146, -0.029854539, -0.044976592, -0.14773896, -0.044336881, -0.019445847, 0.079785688, -0.08005481, -0.038845537, -0.095537092, 0.0052051751, 0.099713939, -0.13673363, 0.074100528, -0.054276736, -0.15421342, -0.12011128, 0.098633447, 0.0761021, -0.11329294, 0.11808579, 0.046663512, -0.066024981, -0.045517191, 0.015197, -0.11553813, -0.12171465, -0.049034135, -0.12621508, 0.01541757, -0.0035618858, -0.053146048, 0.088109871, -0.042174177, -0.07995518};
alignas(64) inline constexpr float W1[] = {-0.043883561, -0.09491485, -0.088042547, 0.085981982, -0.084487886, 0.069885059, -0.081519097, -0.11429202, 0.026182618, -0.033873998, 0.063332207, -0.075005924, -0.21900979, 0.023812524, 0.072897737, -0.027585136, 0.042001124, 0.069370355, 0.074723571, -0.010577435, -0.026321411, -0.0028681278, 0.055556283, 0.023595508, -0.027379152, 0.098506342, -0.0060617856, 0.09133981, -0.016927687, -0.038358406, 0.1128765, 0.038332492, -0.27655686, 0.026601513, 0.12759079, -0.086319961, -0.12041346, 0.041092857, -0.055326648, 0.049762294, 0.015288881, 0.082445623, -0.11697602, -0.087902773, 0.048225228, -0.019367901, -3.3912215e-13, -0.033328723, 0.056745049, -0.094511841, 0.067101981, 0.083650389, 0.07162895, -0.03843285, -0.00099662373, 0.057829305, -0.0086979665, -0.020218367, -1.6130033e-27, 0.042572308, 0.065890012, -0.035943421, 0.055628617, 0.091097249, -0.1189143, -0.0070460853, -0.030556363, 3.9489185e-16, -0.067112677, 0.090184256, -0.039220357, 0.07392819, -0.13965128, -0.2273441, 0.12378549, 0.090625707, -0.025816355, -0.11113534, 0.050341414, -0.099090894, -0.017191717, -0.012054043, 0.013679891, 0.034940471, 0.086768293, 9.4650328e-13, 0.11895127, -0.10635595, 0.019437118, 0.02377576, -0.05562979, 0.15512336, -0.040382009, 0.016265748, 0.048147137, -0.047241302, -0.040158309, 0.021378246, 0.071428497, 0.074925909, -0.077910163, 0.071709778, -0.021718544, 0.11245132, 0.03216767, -0.075798204, -0.04485879, 0.065695483, 0.050547499, 0.081572947, -0.020176156, 0.012807436, 0.039592479, 0.023040817, -0.062304962, -0.026774267, -0.059912633, 0.061614993, 0.10210379, -0.081417378, 0.04938729, -0.30815892, 0.040802597, -0.042870711, 0.045762223, 0.0011096576, -0.055898401, 0.15421187, 0.15597353, 0.013992069, -0.004972704, 0.099479045, 0.041382692, 0.060636836, 2.7145612e-19, 0.080923858, -0.052882337, 0.044599396, 3.6951092e-23, 0.069950804, -0.0018496529, 0.072442099, 0.08315235, 0.033572672, -0.10777235, -0.077768473, -0.086085611, -0.063953576, -0.077362373, 0.020484941, -0.091430343, -0.045591139, 0.084520936, -0.010028983, 0.038803327, 0.077439513, -0.092490054, -0.053581281, 0.0037753694, 0.086897033, 0.051367784, 0.089535685, -1.7961699e-29, 0.11204251, -0.074166954, 0.11418984, 0.025917427, 0.10899976, -0.069617325, -0.096429342, 0.026933833, 0.03245604, -0.042532144, -0.043495993, -0.04638815, -0.085641558, 0.13569508, -0.010182062, -0.090232326, 0.051921991, 0.041260268, 0.049637791, 2.5534267e-30, -0.016207817, 0.11672595, -0.067502337, 0.075665744, 0.084522128, -0.045750057, -0.039385696, 0.07867222, -0.062877573, -0.01466106, -0.0011158257, -0.040174598, -0.080094606, 0.073777777, -0.011253066, 0.077962123, -0.0075985137, 0.12060707, -0.0076926202, -0.043754932, -0.096551539, 0.11556067, -0.003669937, 0.048365008, 0.015227958, 0.064962011, -0.13216115, 0.065198024, 0.10980359, 0.027263024, 0.096531536, -0.049799184, 0.0094369408, 2.0831162e-27, 0.017146735, -0.083732586, 0.076630933, -0.35622557, -0.099291386, -0.094088082, -0.082140823, -0.027357001, 0.091715372, -0.057833683, 0.051961388, 0.01131845, -0.017317594, -0.0071835746, -0.039769564, -0.33175297, -0.021813872, 0.032631172, -0.022720728, 0.0020527027, -0.082666697, 0.078133778, 0.093551791, 0.034847401, -0.032003354, -0.17631859, -0.00066093296, 0.076094768, 0.06747715, 0.010798619, 0.018313921, 0.17470756, 0.10258927, 0.019483341, 0.082815754, -0.043696061, 0.099903062, 0.074060359, 0.02073923, 0.092128002, 0.18415705, 0.10166907, -0.033272465, 0.03039558, 0.084687113, 0.060511762, -0.053525002, 0.10477641, -0.10033647, -0.0051451206, 0.079320444, 0.040371453, 0.034980217, -0.062020724, 0.093039877, -0.080859606, -0.014259559, 0.13229954, 0.024728474, -0.040650597, 0.0067327696, -0.0023820909, -6.3996391e-05, 0.12113603, 0.057147598, -0.020269964, 0.028550981, -0.16662303, 0.0087185623, 0.079000839, -0.083894502, -0.064722435, -0.10291882, 0.054586149, 0.011520021, -0.038165134, 0.056620411, 0.004502718, -0.06848028, 0.047152415, -0.12265106, -0.10136798, -0.084988365, 0.070523537, -0.096588277, 1.5587911e-26, 0.026629338, 0.008787001, 0.015205517, 0.108689, 0.046835915, -0.043887065, 0.012573713, 0.028549525, -0.030397041, 0.021039922, -0.025142539, 3.6009471e-16, 0.13765235, -0.077838128, 0.062312404, 0.11375101, 0.008445388, -0.10949931, -0.066117818, 0.065210413, -5.890542e-12, 0.017205937, -0.0062263107, -0.07434394, 0.083731445, -0.042622097, -0.027781733, 0.058709373, -0.033235537, -0.053621161, 0.060337771, 0.12213273, 0.054371672, 0.044796826, 0.076435728, -0.017791115, 0.071030927, 0.049587646, -3.3987127e-18, 0.059695688, -0.051799954, 0.066859878, -0.17076833, 0.028264553, 0.12753863, 0.029260271, 0.082842758, -0.019588363, 0.037525215, 0.1298764, -0.011974798, 0.091738814, 0.039415757, -0.14690848, -0.085527663, -0.067335422, 0.10373088, -0.020332204, 0.15857651, 0.028088088, 0.076906257, -0.02734047, -0.0027234549, 0.11546906, -0.031537981, -0.044716785, 0.068066313, 0.0066800587, -0.018324297, 0.026388697, -0.093528115, -0.075743422, -0.068958525, -0.0018810414, -0.0016927247, -0.013586842, -0.063385242, 0.017829946, 0.077284267, -0.045552547, 0.021209739, 0.17851208, 0.056445596, 0.02135349, -0.033718572, 0.00024108955, -0.08074519, 2.6912752e-11, 0.030364383, -0.010046985, 0.096009072, -1.2567526e-18, -0.010797348, -0.0011601267, 0.019217072, 0.11236382, 0.03293835, 0.10753936, -0.046889018, 0.064743662, 0.13080506, 0.091887196, -0.16289494, -0.0020267478, -0.0052335859, -0.037318307, 0.12000946, -0.094580479, 0.014969871, -0.012176817, 0.057973078, -0.018729581, -0.056647397, 0.043421689, 0.086170044, 7.354214e-19, 0.050609293, -0.045233982, -0.085119921, 0.019588181, 0.028064858, 0.11817226, 0.13786218, 0.099705101, 0.22894984, -0.00011454021, 0.055916252, -0.012746266, 0.068905403, 0.030729752, 0.027355718, -0.087351777, -0.13027656, -0.087089566, 0.033113626, -1.8534405e-17, -0.014102089, -0.12375664, -0.094562952, 0.049935004, 0.045903965, -0.051655602, 0.079360757, 0.066414693, 0.064476496, -0.036201036, -0.038852006, 0.045336495, -0.083396484, -0.060182422, -0.048818566, 0.058703497, 0.053607854, 0.073182404, 0.079898282, 0.051517118, -0.065673211, -0.054959607, 0.055607114, -0.094847596, 0.070192213, 0.042955697, 0.14524331, 0.011264277, -0.064238397, -0.015732775, 0.081447202, 0.10020793, -0.023010328, 1.2962265e-30, -0.013725858, -0.026720395, 0.036110373, -0.051853646, -0.078807411, -0.14973696, -0.050118616, 2.4605967e-22, 0.00020387176, 0.06007942, -0.12627483, 0.023936899, 0.092921166, 0.041064181, 0.14420204, -0.023210559, -0.012147019, -0.0019997948, -0.0063008305, 0.020102408, -0.13401322, -0.051260197, -0.00033468544, 0.085205891, 0.05052388, -0.020479079, -0.036127007, 0.025263611, -0.052254271, -0.19175279, 0.18307259, -0.06549456, -0.10707108, 0.00036084969, 0.11225912, -0.10486012, -0.029297063, -0.12709009, -0.041028398, 0.018892632, 0.0034614655, 0.065582659, 0.017868227, -0.051168312, -0.067037485, 0.010355935, -0.041006123, 0.0095109381, 0.044827398, -0.085310841, -0.074091809, -0.088227224, -0.075460037, 0.10618112, -0.050388331, -0.036045689, -0.0956993, 0.045191231, -0.03450313, 0.0010996183, -0.080687285, 0.0036578892, -0.027467987, -0.0085237646, -0.027957504, -0.084410193, 0.094040564, -0.034438439, -0.0038680275, -0.031347604, -0.056567938, 0.099151085, 0.020476909, -0.062195133, 0.011777592, -0.044264842, 0.06213217, -0.05296462, 0.068193511, -0.0041112481, 0.0051357419, -0.057370714, -0.069949442, -0.0061647332, 0.095949477, -6.1798268e-15, -0.049453476, 0.08288029, 0.053274389, -0.051096242, -0.043743365, 0.02660933, 0.022630805, 0.054108978, 0.076816594, -2.2663093e-24, -0.05541789, -0.02231129, 0.064065021, -0.046045196, -0.019965534, 0.10166712, -0.058818878, 0.037862541, -0.030469228, 0.087579801, 3.053443e-26, 0.054170437, -0.033648933, -0.0145463, 0.07523173, -0.021395092, -0.13812958, 0.040077608, 0.089429241, -0.039656098, -0.06741727, 0.084047225, 0.075548295, 0.047105403, 0.019568635, 0.050590211, 0.11204923, -0.11717115, 2.1114373e-27, 0.042090541, 0.053390191, -0.087313686, -0.052768207, -0.048136406, -0.023148483, -0.027880403, 0.035441883, -0.013152758, 0.045448584, -0.0099122971, -0.022772311, -0.10348644, -0.1422128, -0.014495879, -0.13248622, 0.0059063567, -0.00078391119, -0.0047893382, -0.040533625, 0.03444798, -0.076818826, -0.10943753, 0.062466628, -0.042840459, 0.060079164, -0.0419683, -0.10492905, -0.028902712, 0.027249505, -0.058323525, -0.076561985, -0.0006369078, 0.052092874, 0.051130863, -0.07695783, 0.033046352, -0.0237818, 0.038295518, -0.050149672, 0.047254647, -0.011355259, -0.11564859, -0.0065135781, -0.10503187, 0.012201174, 0.037657809, 0.050344766, 1.1870744e-27, 0.022888447, -0.0024483341, 0.00068635827, 1.2655803e-21, 0.016449667, -2.7823736e-23, -0.0029456426, -0.080603253, -0.012403303, -0.12177926, 0.02723356, -0.059497273, -0.018199396, -0.076128386, 0.012355707, -0.056063498, 0.001214055, 0.085888582, 0.0036804012, 0.058610381, -0.053232091, 0.1358553, -0.10779802, 0.066683084, -0.081991811, -0.02994563, 0.056754223, 0.035394238, 0.028198941, -0.020392941, 0.011342519, 0.091201423, -0.0078167769, 0.0077207064, -0.1290673, -0.017794252, -0.031180502, 0.12205298, -0.035710106, 0.062902788, -0.020807962, 0.0062896506, -0.10110023, -0.082294233, -0.029135075, -0.1187669, 0.042061274, 8.4475865e-15, 0.015956276, 0.024100208, -0.073304608, -0.0097054155, -0.040369865, 0.011282964, 0.060180162, -0.080819447, -0.036453899, 0.03851046, -0.034133895, -0.093380847, -0.066574803, -0.073196571, 0.002592203, 0.036089809, 0.081580024, 0.075865897, -0.040311726, 0.046025869, 0.0034958572, -0.01361241, -0.029339472, -0.018469618, -0.032525294, -0.037145374, -0.07783173, 0.065612784, -0.0022868162, 0.097650983, 0.058080853, -0.0001836679, 0.042694738, 2.2674377e-27, -0.036986206, 0.0027330926, 0.065690436, -0.047194307, -0.097365449, -0.026812941, 0.066279091, 0.070204939, 0.052248913, -0.068942688, 0.092854826, 0.0024712803, 0.050510907, 0.11454393, 0.1018801, 0.00067859902, 0.086134196, 0.085046048, 0.038012009, 0.10126178, 0.11141954, 0.083990757, 0.026758027, -0.063904227, 0.094277524, -0.083096035, 0.0075033006, 0.06882526, -0.10108096, 0.098433869, -0.08102681, 0.060605881, 0.04115604, 0.022621895, -0.0030483439, -0.060921315, 0.020355637, 0.082478206, 0.039245602, -0.079988808, 3.6037801e-05, 0.19837899, 0.16078446, 0.09229329, 0.059178029, -2.9661534e-09, 0.022691716, 0.12599975, -0.12324491, -0.24044187, 0.0020351584, -0.028536269, 0.047098622, 0.031744698, 0.28631742, -0.11433113, 0.021687827, 0.065076077, -0.14147048, 0.060147675, 0.072449662, -0.066140234, -3.2905235e-05, 0.070367503, -0.14283193, 0.23591765, -0.074913953, -0.24307532, -0.0066180295, -0.035580879, 0.2906988, -0.29103041, -0.031850336, 0.017262952, 0.015333226, 0.061508879, -0.012890771, 0.015169429, -0.13962112, -0.01160896, -0.039329229, 0.13470171, 0.099371456, 0.2008388, -0.18269875, -1.3796361e-15, -0.037449144, -0.12772507, 0.030553995, 0.04288142, -0.096584573, -0.17681721, 0.0037933415, 0.15295898, 0.18523668, 1.8473268e-13, 0.08866853, -2.1291546e-29, 0.18796322, 0.08653923, 1.1670631e-25, 0.087560377, -0.083888534, 0.043043314, -0.16935743, -0.062729254, -3.8881793e-14, -0.074174307, -0.1969509, 6.3967349e-27, -0.1272135, 0.080920851, -0.039425044, -0.18467334, -0.11509804, 0.15336193, 0.0089728064, 0.14816013, 0.078890161, 0.00014604722, -0.10153442, -2.0143682e-05, 0.11417066, 0.14655035, 4.9893814e-27, -0.060461313, -0.12831097, -0.070966674, 0.18552393, 0.041007527, -0.11730528, 0.024529714, 0.0080943643, -0.15061758, -0.13573245, 0.19145067, 0.10038952, 0.0090430007, -0.15079501, -0.088138323, 0.015316136, 0.042659539, 0.25078248, 0.07097568, 0.04984202, 0.16021789, 3.5458586e-16, 0.072571496, -0.081206496, 0.011105138, -0.097752721, -0.05853325, 0.035182508, -0.044846272, -0.066824996, -0.093901756, -0.017605186, -0.10527875, -0.05175815, -0.13505812, -0.045049038, 0.03816887, 0.066151662, 0.12321557, 0.079263059, 0.0017959281, -0.11430274, 0.11111806, 4.822843e-19, -0.15929751, -0.18881666, -0.062941023, 0.1997389, -3.8268518e-15, 1.804237e-05, -0.28086153, 0.0045342152, -3.2359587e-23, 0.20589621, -8.0966712e-13, 0.13164323, 0.022095613, -0.095645435, 0.024590664, 0.033560105, 0.120648, 0.19194344, 0.04203445, 0.053774901, -0.08993839, 0.10806573, -0.067580595, 0.041283656, 0.20666502, -1.3301954e-10, -0.10347224, -0.01361968, 0.24311021, -0.28613905, -1.0735723e-13, 0.15912065, -3.040437e-13, 0.16986704, 0.022531954, -0.22059312, 0.11629135, 0.13781066, -0.13529666, 0.34523119, 0.16033956, 0.17868497, -0.13502597, -0.1787939, -0.22592708, 0.0048556703, 0.083305682, 0.010360438, -0.0612061, -0.039843993, -0.15958776, -0.079710411, -6.9592833e-27, 0.037907121, -0.20111146, -0.2016804, -0.13551647, 0.023383689, -0.06530463, 0.066476993, -0.090733548, -0.058529269, 0.0036470655, -1.1828992e-28, -0.070919113, 0.040342727, 7.166409e-12, 0.046403404, -0.045897254, 0.12779861, 0.15349007, 0.14830025, -1.6291602e-15, -0.080673175, -0.11591145, -0.16261401, 0.070555403, -0.090796924, 0.22322618, -0.037422677, -1.661727e-20, -0.078907488, 0.17108222, -0.05241586, -0.18887426, 0.004271482, 2.8459336e-21, 0.14143111, 0.1074596, -0.19549385, 0.0010964642, -0.01765133, -0.15124035, 0.050563047, 8.2774172e-07, -0.10315035, -0.028606541, -0.2281542, -0.39273235, 0.17492067, -0.032197093, 0.22697338, 0.0041281278, -0.11310865, -0.1730058, -0.0043755651, 0.05520728, -0.10686173, 0.11161504, -0.062311379, -0.11774007, -0.0091116064, -0.0042120253, 0.029422826, 0.015191025, 0.0056884541, 0.29410759, 0.028067541, -0.13918893, -0.019955458, 1.1854495e-22, -0.030836774, 2.3228133e-30, 0.09699348, -0.13965427, 0.061793774, 0.091060063, -0.16231229, 0.011937037, -0.059341678, 0.081619799, -0.12264997, -0.11023077, -0.0079456609, -0.0068317921, -0.056330543, -0.12540576, -0.079872802, -0.03060253, 0.10174736, -0.049649107, 0.0053814328, -0.055215211, -0.089416459, -0.11084388, -0.0546286, 0.035989345, 0.053046527, 0.07075506, -0.043777081, -0.015594538, 0.05349045, 0.082400565, -0.013260566, -0.07860492, -0.097926522, 0.068845727, -0.042663226, 0.068236909, -0.066137816, 0.083755421, 0.0094299247, -0.014324543, -0.034974386, -0.0066186862, -0.11084375, -0.056791525, -0.014432278, -0.017914982, -0.094967599, 0.010335076, 0.06784669, 2.5624841e-12, -0.013651898, 0.01703027, -0.027421496, -0.11696698, -0.083560984, 0.098460895, 0.024790156, -0.068967012, 0.00018568829, -7.4993493e-28, -0.080157966, -0.026828206, 0.02913186, 0.02224672, 0.0025575273, 0.12386544, 0.022831199, 0.091383977, -0.0077846575, 0.021473102, 8.0517543e-13, 0.04103524, -0.01308676, 0.015319264, -0.021207727, -0.011799891, 0.0015090394, -0.069813635, 0.025841154, 0.12112225, -0.059083253, -0.070839924, -0.0069124646, 0.079164438, 0.070484584, 0.05598168, -0.099594936, -0.043767945, 6.6414816e-11, -0.056648532, 0.0020739859, 0.073599864, -0.076396072, 0.038489643, 0.033368447, -0.086364894, 0.083359602, -0.090787242, 0.017449395, 0.040749349, 0.007113458, 0.032103376, -0.074193899, -0.026078791, 0.0065772437, -0.038228265, 0.038841218, 0.069132414, -0.067321482, 0.091567305, -0.034406039, 0.087053705, 0.034702491, 0.012699882, 0.021873444, 0.03555085, -0.044991238, -0.075317613, -0.042723151, -0.048236605, -0.11129488, -0.055633633, -0.048406174, 0.075780919, -0.076585663, -0.059682603, 0.052663054, 0.093022656, -0.045796457, -0.0436533, 0.12502856, 0.059081245, -0.011480671, -0.033368112, 0.00075571094, -0.0033245737, 0.062549075, -1.8980248e-22, 0.0089852254, -0.011191305, 0.10095296, 9.6924409e-32, 0.033068457, 8.0229692e-06, 0.066792066, -0.034869952, 0.013365642, 0.052971168, 0.094173524, 0.08232147, 0.086988766, -0.049168834, -0.05071669, 0.027733959, 0.046321627, 0.066834597, 0.10067869, -0.042242134, -0.024271584, 0.052261045, -0.061809767, 0.0079947996, 0.080837885, -0.12011656, -0.013427028, 0.087743251, -0.054590009, -0.10490317, 0.068295417, 0.00090506946, -0.08800636, 0.093469281, 0.01521025, 0.099214673, -0.049056224, -0.080209355, -0.03908463, -0.022759801, 0.035305603, -0.064086641, -0.022100654, 0.0624554, 0.022118498, -0.10946056, -0.11236658, 2.7264384e-23, 0.1146232, 0.07140107, 0.04383678, 0.045375126, 0.05199638, -0.13597093, -0.0549003, 0.018270664, 0.061482667, 0.0084519344, -1.4941729e-17, 0.08264708, 0.096202639, -0.090002911, -0.073962038, -0.053176146, 0.051987667, 0.066876265, 0.018572406, -0.077194102, 0.062387168, -0.065885224, 0.082264066, 0.05905411, 0.056804536, -0.010857129, -0.092104689, -0.016865828, -0.10175744, 0.067948732, 0.016335979, -0.054373263, -0.066293747, 6.4032299e-22, -0.038787887, -0.020006341, -0.027575858, 0.033488205, -0.090297233, -0.030067579, 0.056799867, 0.078404306, 0.07818129, -0.051333115, -0.020687625, -0.042808708, 0.082070566, -0.013655858, 0.066053645, -0.063994772, -0.096977113, 0.071797986, 0.037905923, -0.092324031, -0.012830298, 0.097647899, -0.028330722, -0.084291311, 0.034797511, 0.05156206, -0.084009164, -0.0073446968, 0.034056913, -0.026564707, -0.09985981, 0.12961141, -0.11049208, -0.051360732, 0.049346162, -0.055266397, -0.091130262, 0.024158236, -0.033321766, -0.067735027, 0.04771792, -0.073604401, 0.053459344, 0.085298222, 0.079239182, -0.044638215, -0.052737578, -0.087273125, 0.11005493, 0.044392613, 0.035316928, -0.036954143, -0.029738187, 0.016236882, 0.003624608, -0.050195899, -0.060385722, -0.074373397, -0.0019105273, 0.03927392, 0.0033477638, 0.10873902, -0.089606826, 0.065532901, 0.062233292, 0.026755021, -0.0061743757, 0.074872328, 0.061842665, -0.091789845, 0.12047426, -0.098901244, 0.0061076991, 0.024909307, 0.065873652, -0.03637219, -0.082237712, 0.0055933746, -0.10844315, -0.040251956, 0.10384765, 0.12826632, -0.091755029, 0.070081678, 0.074270761, 9.8274102e-13, -0.073294241, -0.017964855, 0.079978054, 0.0056754792, 0.0088606884, 0.078165721, -0.068946945, -0.10774216, 0.069934431, 1.8059031e-20, -0.022558372, -0.022787593, 0.039451343, -0.067321683, 0.0041392713, -0.019826829, 0.030492343, 0.12569181, 0.0089392847, -0.019621973, 8.8974239e-27, 0.015747676, 0.0055443111, 0.03878997, 0.092129253, 0.06237686, -0.047168153, 0.015637078, -0.016157909, -0.12445977, 0.10802186, -0.050676652, 0.060712917, 0.0045736279, -0.019169114, -0.046529052, -0.094064976, 0.0029522252, 1.4344618e-17, -0.10428939, -0.078032382, 0.0047672999, 0.091116373, 0.04553055, 0.021254805, -0.11922354, -0.022889326, -0.075941348, -0.13293612, 0.030208837, 0.095246019, -0.018717787, -0.07351266, 0.018294751, 0.094681377, 0.048189176, 0.049714059, -0.017398211, 0.039648453, -0.058637365, -0.054560936, 0.058503533, 0.086806132, -0.1085875, -0.037048087, -0.089483141, -0.018229677, 3.4497325e-19, 0.010985628, 0.061541412, -0.089074718, -0.11190663, 0.10651015, -0.031809744, 0.072339347, 0.10478296, 0.066566548, -0.032809544, -0.08534121, 0.054885279, -0.060807259, -0.087839428, 0.02377551, -0.11920214, -0.00094531082, 0.071785024, 0.07065385, 2.5311611e-27, -0.12893282, -0.071043262, -0.083452444, 2.0533657e-24, 0.041512724, 5.0495876e-06, -0.058326079, -0.098957768, -0.0115712, 0.0051942324, 0.06981902, -0.0029134033, -0.058173625, 0.048222954, -0.030735996, 0.010819102, 0.06115374, 0.067114189, 0.035614003, -0.030308652, 0.057121966, 0.15939609, 0.045845404, 0.011263282, -0.076117535, -0.087499232, -0.036973986, -0.045791757, -0.015093417, 0.0088991267, -0.084387781, -0.051910458, -0.078017921, -0.022024669, 0.1286556, 0.0059001419, 0.087539596, 0.11790622, -0.018643963, 0.1013844, -0.069287126, -0.0013533313, -0.01866117, 0.071244671, 0.08027404, -0.10228599, -0.036326768, -6.8644974e-17, 0.014434216, 0.065775779, -0.14540064, -0.070944893, 0.09524594, 0.061646887, 0.010452405, -0.00084325939, 2.5896346e-22, 0.098560836, 1.1197739e-25, 0.012741901, -0.059115465, 0.058989065, 0.071372787, 0.025391098, 0.053669973, -0.078942898, 0.051738025, -0.10455009, 0.1018793, -0.097457622, 0.048087981, 9.8782903e-05, 0.0002778499, 0.05004814, -0.041360073, 0.00013017848, -0.084279835, 0.10345301, 0.0917711, -0.036510727, 0.063184284, 3.3872801e-16, -0.013845043, -0.0012106804, -0.032708221, 0.14415419, -0.047424259, 0.090539563, -0.010859751, 0.077134132, 0.077133973, -0.058733205, 0.028892482, 0.047809002, -0.017434251, -0.09790412, -0.024873379, 0.10817396, -0.11035749, -0.07180575, 0.032122968, 0.0060765802, 0.014028375, -0.027103808, 0.035690465, 0.063899226, -0.049215273, 0.10282738, -0.021703442, -0.025122484, 0.049157132, 0.017820741, 0.087250762, 0.055870185, -0.033205087, -0.053265578, 0.064894814, -0.05720545, 0.083616174, -0.098467904, -0.047087886, 0.081073201, 0.50620012, -0.10950373, -0.037331529, 0.029840476, 0.10882056, 0.15791827, 0.049835958, 0.0056977456, -0.015928219, -0.07843976, 0.21172037, 0.2308451, -0.061847036, 0.095889528, -0.0083734076, 0.00016466822, -0.17579442, 0.097903351, -0.010247344, -0.00052879094, 0.0087151109, 0.15279366, 0.0098319617, -0.21376764, -0.00085274308, 0.021647633, 0.11529211, 0.38757055, -0.1408595, 0.17826902, -0.2049168, -0.0050373375, -0.0082657483, -0.22930506, 0.13493635, 0.057562907, 0.18824376, 0.055257749, 0.052468787, -0.019594564, 0.20744924, -0.078722316, 0.0060258436, -0.10296253, 0.062845897, 1.0185716e-11, 0.06578277, -0.039636449, 0.14977409, 0.039898137, 0.057515045, 0.077722176, -0.12027282, -0.1165252, -0.11521291, -4.6087293e-11, -0.12682875, 2.8588892e-11, -0.17458967, -0.15929753, -1.9994274e-05, -0.2556073, 0.031859907, 0.050210104, 0.14292109, 0.08572682, 2.4091383e-23, 0.25411961, 0.041573313, -0.092984848, 0.11412462, -0.0702185, 0.011989118, 0.13803468, 0.20447213, -0.10376673, 0.19894306, -0.28103806, -0.095129517, -0.25392397, 0.25822273, 0.028295975, 0.011489278, 0.0020107068, -3.9799289e-20, 0.20579106, -0.080649325, 0.15947626, -0.070928594, -0.19790355, 0.31272152, -0.03630995, -0.14918367, 0.094640057, -0.0075754191, 0.10218729, -0.16338333, -0.11739918, 0.54107882, 0.051659683, -0.068673486, -0.058600071, -0.2552965, -0.31482109, -0.22239588, -0.15280422, -0.091471996, -0.11801945, -0.037070265, -0.0057954548, 0.14329152, 0.17332761, -0.13447136, -0.0540398, 0.070023197, 0.086749991, -0.098495159, -0.017730746, 0.081219767, 0.15401288, 0.20063443, -0.1889594, -0.075865042, -0.18648939, -0.076995851, 0.071858747, 0.27152586, -0.32606155, 1.6441741e-26, 0.090981191, -0.020747864, -0.0038765962, -0.00048809857, 9.7017156e-30, 0.48909038, 0.17570425, -0.17295585, 1.8741323e-24, -0.21525261, -1.5431861e-08, -0.27612288, -0.0041793119, 0.19942915, -0.062685582, -0.050805134, -0.15891652, -0.14132392, 0.31469588, -0.11220541, 0.030390734, -0.17854302, 0.1774619, 0.17670564, -0.058857529, 0.032166163, 0.13663951, -0.095974684, -0.30674946, 0.33517002, -0.028836967, -0.20735592, 1.6988577e-28, -0.30141285, 0.061396823, -0.0013340593, -0.10738786, -0.1401485, 0.18376001, 0.038738476, -0.21283066, -0.5362375, 0.10452566, 0.26711146, 0.24608098, 0.058339706, -0.33002695, 0.018105864, 0.056089399, 0.10811296, 0.21596463, 0.10188996, 7.8533269e-27, -0.16337982, 0.046995619, 0.47151201, 0.26848939, -0.039985006, 0.13718206, -0.19888608, 0.082943717, -0.032611407, 0.21238039, -6.0827759e-30, 0.15180051, 0.081859379, -0.0078699881, 0.10916318, 0.076489218, -0.34217364, -0.13430535, -0.12493844, -0.070073699, 0.066375395, -0.010661164, -0.056044173, -0.051576633, 0.259573, -0.2307337, 0.0010797256, 0.039785038, 0.13135046, -0.12416239, 0.11509552, 0.10798258, 1.8050173e-27, 5.0340737e-28, -0.018772539, 0.091174858, 0.16718044, 0.068737647, 0.045900986, 0.046272301, -0.16306528, -2.1509268e-23, 0.080403583, 0.17777375, 0.20274949, 0.28153378, -0.22066666, 0.29563976, -0.11245021, 0.015906245, -0.00045252623, 0.15602756, 0.036536909, -0.1526016, 0.11859301, -0.042826749, 0.24730722, 0.13465925, 0.02550588, -0.0026386938, -0.18049252, -0.074664181, 0.021056023, -0.23996991, -0.20690262, 0.20813498, -0.16662892, -0.014962418, 0.13522986, 0.091264888, -0.19136278, 0.24630122, 0.27263408, 0.16309354, 0.04614521, 0.0097207945, 0.062855853, -0.1253937, 0.025509101, 0.018135407, -0.0070676159, -0.072836351, 0.1047712, -0.072373302, 0.022835642, 0.072823381, -0.077470378, 0.1125023, 0.0048916672, 0.15038533, -0.037116545, -0.00048007049, 0.12830954, -0.048591168, -0.041975704, 0.11271001, 0.054771683, -0.19950943, 0.15439371, -0.019685632, 0.15609385, 0.024015964, -0.1209455, 0.093133883, -0.038587834, -0.035407259, -0.077224096, -0.49637063, 0.046476096, 0.14332565, 0.094783941, -0.068509037, -0.044943732, 0.12013793, 0.13829267, -0.27473449, -0.1774574, -0.15021232, -0.042050358, -2.7475662e-16, 0.049390002, 0.12261003, 0.12298872, 0.094199122, -0.018514253, 0.0043368352, -0.19534064, -0.14109565, -0.21741476, -0.0012896248, 0.055331954, 0.021517328, -0.10314407, -0.0022858155, 0.015671272, -0.39623706, 0.036519006, 0.013466596, -0.054387549, -0.055040294, 1.1863865e-12, 0.13576338, -0.052017867, 0.0049522973, 0.079535132, 0.13725758, -0.14142528, 0.18619882, -0.086581134, -0.050477595, 0.038427591, 0.002583373, -0.10413514, -0.017966096, 0.069363683, 0.069292322, 0.12243723, -0.075345312, 1.9693636e-14, -0.11438472, 0.11066687, 0.072397283, -0.099561615, -0.13829214, -0.18762621, -0.073049466, -0.015119985, 0.047729695, 0.059044235, -0.04286785, -0.1192109, -0.093228172, 0.047893339, 0.044729381, 0.030314273, -0.038042159, -0.04203478, -0.093315039, -0.082777978, -0.076150828, 0.0064130013, -0.082848716, -0.019651284, 0.083164494, 0.13056343, -0.017887398, -0.11197662, -0.00078004082, 0.076612394, 0.023521897, 0.012825096, -0.057305263, 0.15717696, -0.024383181, 0.075617055, -0.13890057, -0.093120519, -0.10265332, -0.0029407592, -0.013965378, 0.30125157, -0.094447509, 0.012076443, 0.02612432, 0.026572962, 0.044531217, -0.1446443, -1.3372171e-15, 0.086654905, 0.057121119, -0.12676429, -1.3693436e-27, 0.012785651, 1.6220249e-12, -0.13860079, 0.034570142, 0.19826553, -0.29588578, 0.074920515, -0.050776484, 0.039714431, 0.09624265, -0.31392143, -0.028519095, -0.016740909, 0.092313471, 0.068942658, -0.028397854, 0.0019984597, -0.010398986, -0.016279996, 0.0045118613, -0.063912176, 0.076149381, -0.07831186, -0.00040393758, -0.006708705, 0.038937358, 0.018422993, -0.069904862, -0.40822927, 0.21007096, 0.044933681, -0.1439764, -0.20760926, 0.12670691, 0.13331686, 0.0093645679, -0.061270453, -0.017296135, 0.0091667296, -0.057512096, 0.10134685, -0.032830509, 0.056191702, 1.7108659e-22, -0.1385966, 0.0098053112, 0.026598534, 0.023656766, -0.11632485, 0.1137248, 0.015385551, 0.094953622, 0.0076057145, -0.068971454, 3.3598736e-19, -0.033429719, -0.002797661, -0.044594996, 0.076217986, 0.13798433, 0.011782821, -0.12263597, -0.15164828, -0.037091367, 0.040470022, 0.064058096, 0.078304884, 0.0057439613, 0.075320944, -0.069776194, -0.032370358, 1.5820242e-10, -0.072788923, -0.10828438, 0.091454047, 0.1630104, 0.00011518538, 5.6214702e-22, -0.1221995, -0.15246974, 0.11214216, -0.051745992, 0.12940299, 0.060854544, -0.065610525, 0.00011665602, -0.091248778, 0.0091127082, 0.11916706, 0.024701233, -0.081713203, 0.024099572, -0.0886783, -0.012661408, -0.089010781, -0.0062595487, 0.0098020737, -0.1374321, 0.043831083, -0.008815565, 0.058616261, -0.013106426, -0.077577883, -0.017745106, 0.055880508, -0.12027703, -0.020936809, -0.18820917, -0.24337882, -0.24220312, -0.21945434, -0.072915778, 0.18610333, -0.073620978, -0.36745378, -0.078468039, 0.14535692, 0.063043447, 0.54230428, -0.19341502, -0.17264984, -0.0041141769, 0.23350126, 0.1525112, -0.01369234, 0.028269249, -0.039816526, 0.058764153, 0.17260675, 0.14916733, -0.013096009, 0.19813123, -0.022305015, -0.04272178, -0.20343585, 0.16788335, 0.11085797, 0.0031278605, -0.16024584, 0.0071554791, 0.046588066, -0.15463138, 0.070446023, -0.0087363033, 0.14995458, 0.40570292, -0.13736554, 0.050813828, -0.14799975, 0.17075159, 0.0092921509, -0.43904634, 0.02097416, 0.0082400054, 0.0023462411, 0.016153193, 0.020506972, 0.1343714, 0.2154328, -0.061077824, 0.064490949, -0.29108267, 0.085740798, 2.188348e-29, -0.059855778, 0.11344683, 0.19346168, 0.0039692517, 0.018064127, -0.018697328, 0.090224891, -0.12326252, -0.058812047, -0.0046271972, -0.1418629, 4.3069905e-05, -0.27836785, 0.013946329, -0.038422443, -0.49446567, 0.010921238, 0.074390361, 0.092810047, -0.062812209, -3.1737268e-24, 0.25198581, 0.10265863, -0.10029845, -0.013917838, -0.0044968727, 0.052679949, 0.081211703, 0.18376318, 0.0023951084, 0.26370529, -0.24492809, -0.19525244, -0.20767968, 0.36578148, -0.055892511, 0.026612561, -0.17148071, 1.1159661e-26, 0.21662665, 0.019091051, 0.21936179, -0.031226726, -0.13990772, 0.37591843, -0.045159747, -0.091392971, 0.098904346, 0.02369377, 0.043219903, -0.24021428, -0.12654776, 0.16175771, 0.11463213, -0.083685939, -0.063206684, -0.25581632, -0.19949101, -0.26475785, -0.26790594, 0.042131421, 0.018091401, 0.10206591, -0.092017424, 0.1850521, 0.074278235, -0.21333828, 0.027023432, -0.0094526209, 0.066628853, 0.046475314, 0.11132619, 0.19487792, -0.0051621172, 0.036871247, -0.014780103, -0.13386693, -0.095588965, -0.16399216, -0.028923765, 0.222746, -0.33034229, -0.0015976873, 0.045828794, 0.013326902, -0.0099756623, -0.13145453, -4.0574546e-28, 0.26035713, 0.25420433, -0.021619581, -5.1199964e-31, -0.30164509, 1.4382601e-12, -0.14260492, -0.082447836, 0.27688723, -0.0057282547, 0.015649574, -0.078219751, -0.015397298, 0.2393409, -0.11240194, -0.033273978, 0.021058964, 0.35543597, 0.1056699, -0.050810996, 6.133947e-05, 0.15307245, 0.069710085, -0.21993224, 0.23578106, -0.054784757, -0.26930899, 2.2149696e-20, -0.2606773, 0.065480636, 0.032823142, -0.088127764, -0.18483345, 0.35474619, 0.072773762, -0.12491149, -0.32119784, 0.12965738, 0.18839611, 0.025547991, 0.083585277, -0.31397117, -0.010658038, 0.11075748, 0.11661603, 0.1636082, -0.048161552, -4.2401573e-31, -0.18087601, 0.14079527, 0.16260015, 0.07674943, -0.031601579, -0.05288319, -0.28356595, 0.022984056, 0.0073390318, 0.15579993, -1.3588925e-19, 0.048109741, 0.17125572, 0.025373029, 0.21088782, 0.13127006, -0.19939381, -0.23939916, -0.24853573, 0.025320665, 0.016186204, 0.094619019, -0.00019483595, -0.025717307, 0.12448583, -0.10173101, 0.040086076, 1.3502484e-14, -0.013278952, -0.22850413, 0.24859193, 0.2107971, 7.3159372e-08, 3.3151319e-25, 0.016427213, 0.11226564, 0.16422938, 0.16655095, 0.12293616, 0.070659939, -0.14083689, 1.5397953e-27, -0.05524078, 0.077000459, 0.19694303, 0.34435335, -0.1217926, 0.33617805, -0.22537665, 0.11175541, 0.088775944, 0.023251428, 0.068675104, -0.21792768, 0.14223583, -0.1144572, 0.15864544, 0.18903126, 0.047809039, 0.0018610228, -0.053123571, -0.015228279, 0.065656189, -0.15215982, -0.36594211, 0.32808965, -0.18476732, 0.014041585, 0.21763251, 0.034060876, -0.18444412, 0.29223244, 0.23353176, -0.011736855, 0.029688202, 0.059295566, 0.1295242, 0.048736564, 0.10754555, 0.094712559, -0.050689093, -0.0022795409, 0.13446095, -0.032310736, 0.09962172, 0.069747054, -0.016336909, -0.075434117, -0.00183651, -0.088612786, 0.1026817, 0.050381824, -0.048261601, -0.063979665, 0.1060506, 0.0088837798, 0.083507511, -0.040308268, -0.071737795, -0.058172304, -0.0010741557, -0.13167808, 0.1008442, -0.010341467, 0.028430049, -0.14685303, 0.00084428788, 0.0080253632, -0.087262672, 0.11686646, 0.055206725, -0.11802849, 0.060642301, 0.071174793, -0.07559855, 0.03411452, 0.066999407, 0.069559875, -0.023576624, 6.0017016e-29, 0.0012691228, 0.071084244, -0.073497357, 0.099818421, 0.057305863, 0.023332577, 0.11568195, 0.1106195, 0.037613205, 0.0014542129, 0.10401134, 0.010656065, 0.14849545, 0.10917389, 0.0049703764, 0.001975369, 0.051614607, -0.063839705, 0.043938041, -0.034088577, -2.2132167e-28, 0.018525844, -0.029042863, 0.06872576, -0.0032939286, 0.019701539, 0.037847348, -0.12182998, -0.10515915, -0.067839902, 0.0044429543, 0.073661904, 0.076653515, 0.070337203, -0.09207931, 0.043522443, 0.005736683, -0.10997681, -1.8070559e-11, -0.18106107, 0.030831442, -0.037507701, 0.054071899, 0.093865229, -0.12853023, 0.028354179, -0.030565645, 0.037953717, -0.06973626, 0.048916214, 0.12805895, 0.033721815, -0.28785634, -0.03367254, 0.029659604, -0.083688519, -0.067033365, 0.091175573, 0.061821136, -0.062445602, 0.093629347, 0.037751192, -0.004145345, 0.086558562, 0.066897729, -0.10705502, 0.0054844251, -0.061545877, -0.030316372, -0.097507583, -0.10251563, -0.047247855, 0.076132407, 0.077017373, 0.14635512, -0.077813783, 0.078803491, -0.057366586, -0.040558367, -0.097305158, -0.30483638, 0.082311099, 0.027162478, -0.064558728, 0.025059518, 0.05922311, -0.05760769, -3.2115864e-13, -0.020166546, -0.051962992, -0.011446726, 4.2957219e-21, 0.0357106, -1.2599659e-18, 0.13446886, 0.021924792, -0.077970085, -0.11060667, -0.063136455, 0.1258432, -0.0044800428, 0.021856068, 0.048165081, -0.084528867, 0.10945305, -0.183538, 0.049431121, 0.15699853, 0.032265141, -0.057775552, -0.086561443, 0.048943472, 0.033720927, -0.035694588, 0.065785615, 0.0065623802, -0.054999436, 0.067182322, -0.066853519, 0.0069279411, 0.091751456, -0.045152406, -0.0025026277, 0.068283933, -0.050260724, -0.0091609445, -0.074931205, -0.0060069521, 0.048265537, 0.044649295, 0.045720358, 0.052142356, -0.12081751, -0.054242456, -0.11171399, -2.0102257e-20, 0.070347747, -0.11701251, -0.24869178, 0.037482577, 0.011458858, -0.028545348, 0.068649677, 0.081542685, -0.079250262, 0.058478384, 0.023806453, 0.067139094, -0.002850017, 0.035109132, -0.05883651, -0.11456944, 0.091807322, -0.056094761, -0.064549253, -0.12061184, -0.046778518, 0.03678717, 0.096579328, -0.044369612, 0.053247864, 0.096911986, 0.10067599, -0.034344527, -0.078160527, 0.11113428, 0.0093619994, -0.034387398, -0.10135885, -4.7942095e-11, -0.0044379106, -0.010953853, -0.022078752, 0.17738969, -0.033243859, -0.053363546, 0.09974437, -0.06154554, 0.077008161, 0.064767653, -0.054196284, 0.040112764, -0.048466142, -0.063763252, 0.008552299, 0.038268891, -0.072098464, 0.071534178, -0.027473489, 0.062067177, 0.030458138, -0.065842008, -0.081008812, 0.05645635, 0.028638159, 0.021783204, 0.069714095, 0.109075, 0.074534927, 0.1003667, 0.0015960479, -0.21720037, 0.070388935, -0.052864159, -0.016710779, 0.049900969, -0.041509385, 0.078529403, 0.062879411, 0.08002644, -0.008331241, -0.015303117, 0.10271314, -0.04508079, -0.11796792, -0.11120993, -0.039601515, 0.013919942, -0.058357356, 0.03196699, -0.098828479, 0.069309997, 0.12893271, -0.052890579, -0.011678319, 0.032296448, -0.024748383, -0.033376284, 0.044722645, -0.018775216, -0.075469807, -0.014991316, -0.068568586, -0.056859463, -0.097425727, -0.065713131, 0.10350257, 0.022108447, 0.030514841, 0.015418699, -0.0057484677, 0.13537997, -0.037640627, 0.085826582, -0.095842474, -0.003106473, -0.040107125, -0.0384792, -0.045964266, 0.015382872, -0.044469657, 0.016632149, -0.053555584, -0.10220316, -0.00045246838, -4.4126862e-12, 0.072049577, 0.044858207, 0.035929186, 0.040068121, 0.08474382, 0.086828005, -0.00020516447, -0.074779375, 0.013360533, 0.00062878067, 0.025041491, 0.021117505, -0.058315037, 0.040476439, -0.045395274, -0.013045461, 0.10244497, -0.032736227, -0.032413544, -0.0038768706, -7.2609873e-12, -0.044063846, 0.04950492, 0.007597436, 0.10472253, 0.0056840975, 0.010114539, 0.022125036, -0.12082378, 0.10980232, -0.12344963, -0.018280307, -0.046212034, 0.021842222, -0.01332511, -0.037481948, 0.085892842, 0.061762037, 5.1245711e-14, -0.025488078, 0.051439717, -0.021448195, -0.014639058, 0.0090519349, -0.08854069, -0.070796078, 0.0075522756, -0.12935513, -0.024360686, 0.090384619, 0.068414767, -0.084425697, 0.063161442, -0.052124984, -0.10768891, -0.048383652, 0.036197445, 0.0037568456, -0.091777877, 0.082326074, -0.01390315, 0.067546991, -0.06352483, -0.15369707, 0.015971457, 0.017579766, -0.11148706, -0.067451678, -0.094252943, -0.10753308, -0.079798417, 0.030191585, -0.010118167, 0.092922236, -0.049867225, 0.093530929, 0.027581566, 0.089158606, -0.0933589, -0.023804268, 0.095912456, 0.025284035, 0.010714981, -0.093062635, 0.025493873, 0.10997616, 0.090667546, 1.3186126e-28, -0.12144733, 0.016952061, -0.049477447, -1.4609455e-20, 0.00061518913, -3.0822452e-24, 0.036988806, 0.049039385, -0.07940136, 0.051456624, 0.11835126, 0.016527096, -0.012324087, -0.069587567, -0.066414812, -0.023298708, 0.031048337, -0.035247655, -0.021521357, 0.010510741, 0.058216599, 0.12391339, 0.07160949, 0.11469622, 0.13187427, -0.088186027, 0.067537855, -0.072672196, 0.069710137, -0.026458852, 0.0069009786, 0.024655223, -0.09478696, 0.078040996, -0.057967659, 0.072101705, -0.035993443, 0.037969954, 0.019061416, -0.001601143, -0.0059438048, 0.048334081, -0.059049629, 0.010688921, 0.11308214, 0.080690037, 0.04820047, 8.9590519e-18, -0.093848364, -0.074563454, -0.0094155166, 0.07325987, 0.089949241, 0.036186661, -0.0076002264, 0.1080488, -0.018163235, 0.0060782738, -6.2024719e-11, -0.073916886, -0.021181607, -0.027467636, -0.028538957, 0.060872859, -0.042931305, -0.095802556, 0.0078314339, 0.077196293, 0.043557392, -0.041132585, 0.051071238, 0.029526467, -0.078434638, 0.10665743, -0.031284699, -4.6251344e-15, 0.014720656, -0.036227768, -0.013782691, 0.026591223, -0.089141258, 1.0414526e-29, 0.057570994, 0.12126406, -0.098398991, 0.10155825, 0.10654456, 0.11205609, 0.10321119, -0.088138338, 0.097628261, -0.081154306, 0.00085126969, 0.014353676, -0.047005026, -0.016588697, 0.019608698, -0.098901969, -0.020241847, 0.037396686, -0.087220084, -0.070758713, -0.01637622, -0.077839343, 0.10019825, -0.056876948, -0.0112203, -0.014058484, -0.038176334, -0.067256867, 0.073914781, 0.08984167, -0.082140685, -0.06800477, -0.086642777, -0.071693037, -0.11806633, -0.086738642, 0.0030076121, 0.12168498, -0.0086368499, 0.023707079, 0.050688943, 0.11162164, -0.050761815, 0.069615177, -0.070181226, 0.094147148, -0.043836268, 0.086288651, 0.077999617, -0.03761352, -0.11821833, -0.079861925, -0.11947863, 0.046313922, -0.14454001, 0.055079468, -0.091390845, -0.076979209, -0.055751662, -0.0085700001, 0.021353733, 0.073317305, 0.021188662, -0.050059387, -0.091829703, 0.080050463, -0.007884386, 0.054158291, -0.0016417525, 0.0070830661, -0.0065114294, 0.057909384, 0.0094766199, 0.057467092, -0.12523891, 0.082687924, 0.051478434, -0.034230283, 0.0018178997, 0.095565438, -0.025637815, 0.017457423, -0.089169309, 0.062011094, 0.05170934, 1.8491705e-18, -0.06847689, 0.042645136, -0.032184727, 0.044897041, -0.086177551, -0.10204807, -0.097042574, -0.064632969, -0.045327646, -0.055082141, 0.037896063, -0.010479736, 0.10822508, 0.009615119, 0.095505424, 0.037631089, -0.015056445, -0.057416021, -0.070809685, -0.0063944309, -1.7534345e-20, -0.10740966, -0.02323983, -0.09390967, 0.036273934, -0.090253366, -0.030655082, -0.086532904, -0.098529988, 0.0083265342, -0.061782017, -0.078959285, -0.048897805, 0.061053221, -0.090552175, 0.063498339, 0.051393618, -0.055020732, 2.8273173e-26, -0.21036954, 0.0011106251, -0.11601162, -0.31690715, -0.086392321, -0.22757356, -0.054752982, -0.081972476, 0.095950114, 0.03233897, -0.023468519, -0.061776254, -0.0903791, 0.099979719, -0.046185563, -0.168837, -0.070308711, 0.070448226, 0.021120218, -0.051521732, -0.0062170429, -0.10805168, -0.035226771, -0.026235744, -0.00058631033, 0.048689799, -0.078466972, 0.02473686, -0.082151743, -0.059074865, -0.06726574, -0.085984378, 0.034437079, -0.035421286, 0.079324994, 0.04962134, -0.072356109, 0.028387664, 0.0032912498, 0.021022794, 0.0085157661, -0.12548776, 0.0068425248, -0.01265297, 0.024052408, -0.043895293, 0.0009414177, -0.020007885, 1.0346866e-29, -0.014037384, 0.05298595, 0.050677329, 4.8901797e-19, -0.0087698651, 4.3295467e-19, 0.027058657, -0.089111645, -0.051505652, -0.011344685, -0.048165458, -0.0033985288, -0.075289877, 0.023613295, 0.049145116, -0.022598674, 0.0044131739, 0.0032675984, -0.020069992, -0.086778293, -0.030546072, 0.05576645, 0.10850471, 0.037026417, 0.10336733, -0.0033987803, -0.047762268, -0.022338024, -0.012964215, -0.10607262, -0.042283335, 0.096778374, 0.01019702, -0.025616722, -0.12554847, -0.085266414, -0.072373668, -0.077595153, 0.068935032, 0.092908619, -0.09664939, 0.042653111, -0.035882886, -0.00060084569, -0.017715737, -0.00029720219, -0.06944515, 4.8973751e-28, -0.10146106, 0.069183336, 0.06646486, -0.089314152, 0.017317121, -0.045985607, -0.050197595, -0.018551167, 0.045515852, 0.020920378, 0.0029880746, -0.061886841, 0.012087378, 0.080510647, -0.11230504, 0.039774338, 0.12867915, 0.075816605, -0.052742168, -0.093789191, -0.051901068, -0.080204749, 0.07455068, 0.0080228827, -0.10135995, 0.032494849, -0.071267526, 0.0076195849, -0.05251353, -0.035116849, 0.0005800521, 0.046045851, 0.017382825, -1.9107427e-13, -0.071767132, -0.041540882, -0.053193402, 0.098488174, 0.075715363, -0.10701935, -0.053889384, -0.040665518, -0.068819952, 0.064589961, -0.084570787, 0.066903004, 0.11114839, -0.077430718, 0.085777249, -0.035745059, 0.063846883, 0.046074059, 0.089709173, -0.024606088, 0.041161994, 0.083447934, 0.042031403, 0.066459008, 0.089316942, -0.07015535, -0.0025431987, -0.067862076, 0.071156385, -0.16299154, 0.089406622, -0.13858231, -0.068033983, 0.015102665, 0.082309247, 0.02767619, -0.029333528, -0.10107154, -0.059668354, 0.013300446, 0.067443207, 0.044240932, -0.15114607, -0.10852293, -0.040086295, 0.032393115, 0.026513886, -0.044528904, 0.099569509, -0.011274982, -0.066144376, -0.013642139, -0.010964428, 0.0014075427, -0.0397966, 0.024138767, 0.0739658, -0.031917213, 0.025695533, 0.10962092, -0.13679893, -0.010346454, -0.028902842, 0.14884422, 0.0017891701, 0.053166637, 0.10934684, -0.13374285, -0.05481255, 0.031636348, -0.038217801, 0.1657047, -0.0057569411, 0.029393424, 0.1085244, -0.026138996, -0.019522615, 0.060588945, 0.033155713, -0.05202442, 0.088885083, -0.16157778, 0.018267621, -0.1302158, -0.0036066991, -5.0907145e-22, -0.013279552, 0.076926478, 0.0092639497, -0.0013025622, 0.0058617351, 0.11230748, 0.13165647, -0.03364321, 0.058580322, -1.1841557e-18, -0.054690491, 0.019072707, -0.044092565, -0.047766738, 0.000114078, 0.085005505, 0.10207901, -0.1445464, 0.0077423563, 0.033431296, -1.9954186e-28, 0.038073724, 0.13644306, -0.046345992, 0.10791531, -0.088496556, -0.058627655, 0.082158306, 0.12496652, -0.018757119, 0.093917549, -0.0069622135, 0.054021812, 0.02193826, -0.03955132, -0.080894766, 0.083863658, -0.069235071, -3.7005104e-23, -0.063297993, 0.055514966, 0.073075055, -0.06504952, 0.0096787145, -0.018975664, 0.050920934, -0.015619188, 0.11135319, 0.065175572, -0.025777095, 0.0048542306, 0.073056098, 8.6833862e-05, 0.0036012884, 0.015887099, -0.077722038, -0.24999424, -0.040690839, -0.10938523, 0.016379206, 0.089449932, -0.030562505, 0.13084, -0.079327192, 0.10437833, 0.046248319, 0.038033943, 7.8188605e-26, 0.1288608, 0.0079782015, 0.081292373, 0.1542958, 0.005945312, 0.0019237113, -0.043622869, -0.036886508, -0.099775857, -0.05370013, -0.060755237, 0.063244529, 0.0077698319, -0.20496214, 0.040032727, 0.0043681579, 0.047554247, 0.034201925, -0.024191068, -1.03484e-12, 0.011828511, -0.099887619, -0.081130675, -1.5428353e-18, 0.039616926, 1.835131e-11, -0.039800712, -0.046456311, 0.0070588913, -0.19876409, 0.050394907, 0.060536596, 0.00021319354, -0.035447093, 0.047603456, 0.094420665, -0.005969348, 0.029353075, 0.10675369, 0.0099216596, -0.06315523, 0.11913468, -0.08595848, -0.22214849, 0.049289882, 0.06447017, 0.054387255, 0.0082999171, -0.091215429, 0.067327548, -0.068874457, -0.063820433, 0.040620447, 0.096427153, 0.0045073056, -0.084685945, -0.0093500678, 0.11545701, 0.064589603, -0.094644625, 0.10916127, -0.11222908, 8.0166262e-07, -0.014636876, 0.097504483, 0.082671469, 0.088731121, 1.3049566e-28, 0.058935556, -0.037711772, 0.023579076, 0.041189418, -0.097684036, -0.04278422, 0.06866717, -0.035616499, 0.00032911342, -0.042888309, -0.0017587484, -0.050688669, -0.014261198, -0.029090481, 0.073668667, 0.11378355, -0.038143439, 0.018557449, -0.10402904, -4.5678443e-13, 0.0001373438, 0.082463316, -0.0082907166, 0.036230537, -0.015951212, -0.095331676, 0.032869076, -0.062663027, 0.09892796, 0.045021118, 0.1525401, 0.074688866, -0.0089352867, -8.7049814e-13, -0.013722267, -0.055261746, 0.10429844, 0.093112983, -0.03693553, 0.097233407, -0.060477247, 0.011681956, 0.1168547, -0.075537113, 0.035934438, -0.066314289, -0.0086421242, -0.081901691, 0.013141443, -0.033987311, 0.10965398, 0.039247174, 0.050241047, 0.00010571599, -0.069362917, 0.040694513, 0.11677238, 0.018372247, 0.14126867, 0.010212484, -0.11841603, 0.032652008, -0.026810816, -0.15487486, 0.010335167, -0.075552371, 0.11260835, 0.033259787, -0.032230551, -0.033039127, -0.091848949, -0.090291746, 0.078532646, 0.041158794, 0.11232422, -0.010454467, 0.055740328, -0.0073522429, 0.037488507, -0.10471456, -0.0050474359, -0.065721023, -0.042758184, -0.048658687, -0.09629051, 0.063755472, -0.17148433, -0.0072519816, -0.018949774, -0.082591645, -0.041076293, -0.033524131, 0.085948524, -0.11060149, -0.067680408, -0.0026611958, 0.019733706, -0.022606965, -0.034079084, -0.04578453, 0.034972542, 0.07699252, -0.085899859, -0.028538091, -0.0010221279, -0.12790741, -0.02980592, 0.08702483, 0.035998154, 0.070950859, -0.10361716, -0.075466908, 0.039465219, 0.012640968, 0.14427917, -0.11070601, -0.0431493, -0.058124301, 0.034217428, 1.8823903e-20, 0.082732403, -0.072768371, -0.11905644, -0.024000402, -0.066168625, -0.019098153, -0.02174474, -0.027673564, -0.0096680636, -0.046017533, 0.074046421, -4.022139e-12, -0.060266678, 0.072797477, 0.073479491, 0.14452734, 0.10909406, -0.071661909, 0.11036409, -0.074019586, -4.2431339e-12, 0.040357849, -0.029207705, -0.0027258288, -0.014311693, -0.014172662, -0.091267839, 0.14339484, 0.013161213, 0.077481749, 0.056418515, -0.065581522, 0.062023608, -0.0118617, 0.040524851, -0.1140402, -0.015226519, 0.036926955, 1.0613261e-15, 0.0080830085, -0.08201337, -0.037918051, -0.029310636, 0.032276242, 0.134423, 0.036993694, 0.07668718, 0.10040791, 0.023813409, -0.03644042, -0.012275979, -0.11203797, 0.1290491, 0.049588321, 0.055740538, -0.057555224, 0.10020294, 0.093148946, 0.083157935, -0.096202706, -0.03634839, -0.080004033, 0.10328119, 0.010752336, -0.0038739352, -0.0036994375, 0.027689259, 9.261071e-05, 0.089290381, 0.15592336, 0.04961467, -0.042394667, 0.10801807, -0.06891957, -0.041860532, 0.056632663, 0.046570983, 0.0023392261, -0.0075296609, -0.072704136, 0.11804557, 0.096784329, 0.00201774, 0.1213477, -0.053280325, -0.016624299, -0.032528853, 4.4042982e-11, -0.0088125104, 0.037260855, 0.045658198, -1.1888555e-11, 0.10542356, -0.012176654, 0.015308, -0.073709297, 0.043258137, -0.093746491, 0.061081944, 0.053561844, 4.8226431e-05, -0.081263868, -0.18034335, -0.065389595, 0.10222757, -0.032128541, 0.039465109, -0.056224119, -0.042246632, -0.060864877, -0.0077840958, -0.0787587, 0.096279533, -0.0086852066, 0.033358292, 3.2839845e-30, -0.0699756, -0.023523207, -0.0014924556, 0.020714807, -0.0036322937, -0.030236415, 0.013241736, 0.0063168255, 0.089214694, 0.074421384, 0.016984413, 0.023460142, -0.058969081, -0.040522183, 0.062722667, -0.10473764, -0.10300154, 0.059083901, -0.05110863, 6.0092688e-22, 0.025692735, 0.10680465, -0.025944999, 0.048870777, -0.09148531, -0.022199595, -0.021181825, 0.089507723, 0.026819138, -0.06327929, -0.10166334, -0.020595898, 0.010840836, -0.0037530791, 0.066176005, -0.041125208, 0.013476702, -0.049397824, 0.055276704, -0.037396874, -0.13487108, 0.087780799, -0.079707938, 0.051596249, -0.10961372, 0.0081355574, 0.030544068, 0.086836087, -0.085564134, 0.039446426, -0.067132285, -0.055154309, 0.077106579, -1.8727006e-18, -0.075239448, -0.0033607043, -0.08653658, -0.096486675, -0.080672319, 0.10004329, -0.0020546682, -0.0092123295, -0.041196935, 0.092469594, 0.06477293, -0.11177939, -0.068320859, 0.022358378, -0.089679724, -0.1605231, -0.060912336, -0.11321228, 0.032017499, 0.066160153, 0.072188747, 0.045583574, -0.044372847, 0.11966639, 0.030240148, -0.054532847, -0.00015802426, 0.07626486, -0.063881094, 0.016376685, 0.042662072, 0.143374, -0.026006108, -0.027053007, -0.074403299, 0.072916471, 0.01674779, 0.042122889, 0.042332267, 0.024167878, -0.093536441, 0.061341631, 0.062518524, 0.050880119, 0.10938034, 0.0067369251, 0.095936589, 0.047137798, 0.0029583698, 0.013037878, -0.046105951, -0.10988971, 0.099679839, 0.073485253, 0.021963172, -0.059346351, 0.045242399, -0.0017707656, -0.055694764, -0.091865663, 0.033104593, -0.081043743, -0.067409013, 0.028642363, -0.087445705, -0.014908326, -0.076059599, -0.077722765, 0.094963776, 0.029064239, 0.063818185, -0.079691852, 0.059984243, 0.090452695, 0.087114685, -0.018392532, 0.067088527, 0.040501247, 0.078443612, -0.070885874, 0.023870251, -0.088177893, 0.079577038, 0.10603989, -0.06311234, 3.8048901e-28, 0.052913856, -0.052700468, -0.027159151, -0.042128313, -0.0039148057, 0.11790396, -0.027157873, -0.089734943, 0.058122077, -8.7189967e-24, -0.029615905, -0.015084331, 0.092047745, 0.064518493, -0.00013747714, 0.057989228, 0.1197063, 0.10084881, 0.056524017, -0.016389721, -2.7015273e-16, 0.083730437, 0.03487356, -0.034058009, 0.052522247, 0.10301045, -0.027839177, -0.051019572, 0.13808693, -0.0022993887, -0.087811529, -0.087428561, 0.094438604, 0.076217004, 0.011774044, -0.026275687, 0.041827663, -0.023235107, -8.0546055e-12, -0.017588844, -0.096258447, 0.10905587, 0.082707558, -0.013771577, 0.0852812, -0.044148566, 0.011225458, -0.078919222, -0.066999417, -0.010665501, -0.081808324, 0.088039557, -0.019084032, -0.049569091, 0.0030080464, 0.057490248, -0.041231947, 0.035829295, -0.0075569343, -0.0094355805, 0.051283716, 0.00093321133, -0.010469614, 0.084606899, 0.098284024, -0.046362248, -0.054626092, 2.8596046e-26, -0.041982849, 0.067774131, 0.034616608, 0.054998992, -0.025034041, 0.099037774, -0.025862483, -0.084451824, -0.07418191, 0.023988767, 0.022643898, 0.095768165, 0.1254614, 0.0107956, -0.058443532, -0.027341788, -0.070553239, 0.052162915, -0.0064051707, 3.8744246e-16, -0.11921572, -0.11561913, 0.034616206, 7.95596e-27, -0.0052241441, 4.4752173e-06, 0.07971548, 0.0038698571, -0.0096882431, -0.039647475, -0.073409501, 0.090603101, -0.086349205, -0.062949135, 0.0016217704, -0.029140791, -0.10345705, 0.044826848, 0.053374209, 0.0079416579, -0.084708079, -0.046956016, -0.13380732, 0.007700936, -0.27760145, -0.032883714, -0.075097751, -0.021071636, 0.039716578, -0.06602305, 0.011453732, -0.011525335, 0.10781366, 0.092065266, -0.013050096, -0.072396193, -0.01152441, 0.061299847, 0.075442001, 0.044621918, -0.023457905, 0.023489726, 0.025688184, -0.04783566, 0.032362337, -0.040785683, 0.020002288, 1.5283381e-12, -0.0034194367, 0.012237997, -0.10770549, 0.014202921, 0.077552763, -0.066496102, 0.077590673, 0.0035407482, -1.4536202e-20, -0.043295757, -0.0052963306, 0.081773905, -0.078117808, 0.011487245, -0.08730171, -0.04511753, -0.066978437, 0.0015821622, 0.040055658, 0.056983603, 0.0034490719, 0.071084028, 0.037268439, 0.11011101, -0.081675726, 0.079560573, 0.082275297, 0.039507218, -0.015691977, 0.019036996, 0.096410387, 0.097992675, 0.043659012, -9.7443725e-30, 0.015317787, 0.077636654, -0.036600825, -0.085645749, -0.059320552, 0.023517782, 0.10743736, -0.068214663, 0.081647991, -0.084699841, 0.030012084, -0.23136491, -0.043367151, -0.0020624193, 0.023116209, -0.003547348, 0.089758814, -0.055828423, -0.033364485, -0.045751259, 0.035041069, -0.084636186, 0.10980679, 0.068622412, 0.08352914, 0.015965091, -0.06873898, 0.0030697549, -0.0095633091, -0.0026280831, -0.087868878, 0.016015177, -0.1221319, 0.074731246, -0.020484719, -0.01408448, 0.050752515, -0.21544587, -0.072461875, 0.010637203, -0.0087649544, 0.07813234, -0.0075470223, 0.096771618, 0.043339464, -0.14317174, 0.027747283, -0.028558232, -0.20199406, 0.088918969, -0.027742325, 0.023387467, -0.061821297, -0.025222446, -0.027137005, 0.0073477126, 0.00075200896, 0.036266988, -0.074994803, -0.00257484, 0.038754082, 0.00017641767, -0.0010898012, 0.10030129, 0.057882848, -0.015219242, -0.019718723, 0.046651072, -0.090065208, 0.010025455, -0.099536847, -0.2812182, 0.023062618, -0.066654661, 0.048784256, 0.022842975, -0.050789842, -0.0051034125, -0.0011063869, 0.045427126, -0.025685307, 0.058817427, 0.044139603, -0.0097419321, 0.0088408268, -4.1772628e-30, 0.075631406, -0.11557254, -0.025932369, -0.022864116, -0.062843105, 0.018017436, 0.016425812, 0.01369231, -0.06603124, -0.025194277, -0.089183542, -4.7586645e-23, 0.007099319, 0.060149751, 0.0023631392, 0.04692938, 0.044098768, -0.10529097, 0.02108664, -0.04725189, -8.1078199e-29, 0.011653644, -0.068827747, -0.061894987, 0.0041606179, -0.031189879, -0.16462354, -0.010174443, 0.16668844, 0.10725478, -0.035780242, -0.081381487, 0.066875161, -0.055269927, 0.070627787, 0.05615563, 0.081995297, -0.050007998, -2.9149695e-30, 0.15356725, -0.065723548, 0.078017019, 0.060396702, 0.079678014, 0.11908283, 0.091261758, 0.023774885, 0.079267068, 0.017946579, 0.08441843, 0.030147182, -0.021889389, 0.086370005, -0.0023266001, -0.066426185, 0.085784389, 0.08729698, 0.026318465, 0.051860424, 0.12368145, -0.079128799, 0.018543668, -0.03320324, -0.024128448, -0.09798085, -0.01319482, -0.001797025, 0.010842413, 0.0098643079, 0.029334816, 0.038055991, -0.015261621, -0.0013500442, -0.020495298, -0.21875365, -0.052786138, -0.049761636, 0.00058727948, -0.00033957106, 0.043882413, 0.050079856, 0.060978735, -0.05549906, 0.11407284, 0.021841283, 0.057183649, -0.045109787, 3.6399438e-25, -0.068251976, -0.060919193, -0.046718343, 5.9104434e-22, -0.0077355204, 0.0059027365, 0.10997259, 0.031779071, -0.076803522, -0.016043901, 0.081637072, -0.049530353, 0.0081253682, 0.091677666, -0.035218715, -0.029586408, 0.079547041, 0.09622206, -0.022326474, 0.018822391, 0.021559469, 0.024567482, -0.06822275, 0.057520538, -0.045033482, -0.097762997, -0.054736774, -0.015964222, 0.1110839, 0.059866265, 0.11698841, -0.0029344429, 0.0025023516, 0.07846489, -0.087688654, 0.11897609, 0.074797793, -0.056829537, 0.093614092, 0.014241811, -0.12512124, -0.065594969, -0.10858604, -0.094438146, -0.10919999, -0.0064206777, -0.11331256, 3.3409781e-29, -0.047255759, -0.0021186145, 0.012025486, 0.062073275, -0.051806061, -0.11389702, 0.1043614, 0.0082692418, -0.097425388, -0.15557811, 0.0022962475, -0.082275984, -0.21107936, -0.061976086, 0.033799114, 0.077268115, -0.064016336, 0.09085085, 0.051814016, -0.0012652069, -0.073010859, 0.085169641, 0.052157581, 0.066928072, -0.004659813, 0.034975014, -0.064685908, -0.041472219, -0.083653205, 0.070226931, 0.060107253, 0.01065448, -0.004301076, 2.8929827e-14, -0.099259013, -0.058017715, -0.027019052, -0.31205025, 0.0012620017, 0.077301234, 0.070681275, -0.014705173, 0.017884787, 0.08055001, -0.019617577, -0.054172651, 0.035989544, 0.09909325, -0.094068871, -0.036464256, -0.13485215, 0.0049295787, 0.001876585, -0.10037548, -0.01080826, 0.0048948654, 0.066711462, 0.070112523, -0.10638673, -0.14116233, 0.0098691664, -0.082919678, -0.027430598, 0.14259663, -0.057530715, 0.17291532, 0.023777546, -0.0055607968, 0.0049170123, 0.0045226216, -0.037354123, -0.073875303, 0.043774554, 0.15273945, 0.28226568, -0.0021091642, -0.074365345, -0.10833122, 0.096954506, 0.19537691, 0.091561047, -0.11948356, 0.078272808, 0.038245737, 0.14210682, 0.078071303, 0.065004537, 0.10656941, -0.055206465, 0.094935412, -0.13133038, 0.17797247, 0.059420778, -0.035235135, 0.0038937722, 0.058438043, -0.056682977, -0.091298759, 0.0670154, 0.060635452, 0.064064039, 0.17884321, -0.10979355, 0.064642804, 0.012324937, 0.15705577, -0.034148895, 0.11164139, 0.15930328, 0.041020842, 0.019388539, 0.1265451, -0.030112663, 0.1363598, 0.061773314, -0.087334214, -0.11154322, -0.075457087, -0.015504783, -9.7354532e-22, 0.094431427, 0.073477967, 0.090456435, -0.41218647, 0.092328305, 0.082695688, -0.2679979, -0.081623477, -0.0074241303, 0.022532927, -0.017829411, 0.0072408966, -0.17521938, -0.0099838419, 0.0096450938, -0.18492163, 0.072466862, 0.064189954, 0.025027339, -0.26412845, -2.291856e-11, 0.057151316, -0.039891844, -0.065764529, 0.12717494, -0.1894779, 0.02283873, 0.13946185, 0.066741869, 0.022665287, 0.074280355, -0.10701137, -0.14599953, -0.14695139, 0.16134588, -0.039368762, 0.19576836, 0.053364647, 8.9334543e-27, 0.070292141, 0.13260928, 0.13208648, -0.11714693, -0.14254949, 0.19711962, -0.011401227, 0.075410128, -0.028817608, -0.06327518, 0.091134592, -0.18556388, -0.063261738, 0.13036744, 0.11320452, -0.023825941, -0.056316086, -0.04313234, -0.010301004, -0.0692398, -0.15010618, 0.034960501, 0.032836668, -0.025859659, 0.099113336, -0.027268898, 0.1597322, -0.16083525, -0.0058916091, 0.0053208563, 0.17885384, -0.079380702, 0.030159332, 0.04112436, 0.032642111, 0.17496567, 0.025004652, -0.020289837, -0.19434558, -0.050608176, 0.081404457, 0.068942229, 0.036234797, -0.044785795, 0.32793667, 0.060473287, -0.0087254095, 0.079325409, -3.915496e-29, 0.32974796, 0.13532885, -0.068523121, 3.7745809e-29, -0.072325708, 0.00019982662, -0.04316229, -0.0040575054, 0.15115688, -0.092664996, 0.013099542, -0.14466931, -0.0036567048, 0.047833429, -0.14631545, -0.0092938217, 0.1256106, -0.11166774, 0.040104209, -0.18470992, 0.032639686, 0.16572483, -0.3010501, 0.032124555, 0.073360047, -0.022057325, -0.073314947, 4.8184152e-13, -0.16513023, 0.073747596, -0.038430582, -0.087369914, 0.01333346, 0.032192564, -0.2322502, -0.12897772, 0.094796073, 0.13152817, 0.024124948, 0.020858265, 0.0049972834, -0.0051021248, 0.044306812, 0.063616453, 0.15048585, -0.013872954, -0.021607877, 2.8755333e-11, -0.048232878, 0.074575009, -0.0038729399, 0.13450421, -0.034798974, -0.0014038564, -0.077979108, -0.004916179, 0.0006546926, 0.12080916, -0.0056568057, -0.041359354, 0.11534624, -0.034739752, 0.085420862, 0.092686281, -0.16927131, -0.10343651, -0.077217328, -0.015611599, 0.036045225, 0.099935237, 0.020449636, 0.0014950174, 0.06518509, -0.11965006, 0.025426298, -0.00038424521, 0.0088051284, -0.045908945, 0.21263558, 0.0094164364, -0.00020813862, 5.0078065e-22, 0.050489109, -0.20064671, 0.05748845, 0.18115094, 0.10062836, 0.054597832, -0.097549554, -0.0061201032, 0.12072737, 0.094214566, 0.079251543, 0.16793606, -0.15323242, 0.22377321, -0.17159925, 0.23686718, 0.12749773, 0.12706367, 0.0082584835, -0.53085047, 0.045083397, 0.080031128, 0.11889387, 0.080569911, 0.13360017, -0.068975292, -0.090121801, 0.08057616, 0.091228554, -0.19198793, -0.21775872, -0.023139759, -0.090292201, -0.014676554, 0.16341837, -0.089784418, -0.1347349, 0.056301785, 0.052840749, 0.10550827, 0.034324852, 0.088864399, 0.066948932, -0.016324661, 0.10393276, -0.060794509, 0.006409297, 0.069343926, -0.055154163, 0.0010302114, -0.038772868, 0.079621263, -0.14658802, 0.00079257993, -0.0039262361, 0.079742795, 0.025960401, 0.049221569, 0.01324708, -0.095438575, 0.081977342, 0.087734776, -0.011666925, 0.046912186, 0.031103, 0.033290361, 0.0028916838, 0.042858491, 0.025760653, 0.011527711, 0.053728136, -0.19688643, -0.014691428, 0.031821807, -0.094268927, 0.087925051, -0.0032931402, -0.015796673, -0.026866433, -0.030379328, -0.09206183, 0.026973327, 0.048806705, -0.045165004, -0.06307421, -2.9200337e-14, 0.061510813, 0.037567039, -0.11026731, -0.071913313, 0.082725551, 0.049888734, -0.035863062, -0.10436035, 0.0083286133, -0.00047379917, 0.04486329, -8.7486071e-10, 0.054485347, -0.096778983, -0.035081979, -0.079737467, -0.028596509, -0.11853493, -0.0086621871, 0.041276697, 1.7320537e-27, 0.11349749, 0.068700701, 5.547425e-05, 0.020966303, -0.00066860917, 0.068795049, 0.069384003, -0.047846363, -0.037403063, 0.083720116, 0.091269336, -0.059556866, 0.061747242, 0.056672227, -0.0017130777, 0.04226689, -0.041538652, -1.0143531e-12, -0.010100646, -0.084998784, -0.0022399683, -0.064044625, -0.013381379, 0.13173089, 0.025150714, 0.060575831, 0.0005935615, 0.10521366, -0.12026372, 0.10387839, -0.03502711, -0.013318317, 0.11001109, 0.069440172, 0.026490146, 0.033933195, 0.11232514, 0.0055544523, -0.082846032, -0.10664921, 0.095128019, -0.093467394, 0.12457631, -0.00039988907, 0.036221642, 0.10118989, 0.053375171, -0.02596866, 0.055524411, -0.0060759724, 0.033673037, -0.071924147, 0.035970366, 0.046029614, 0.072629721, 0.040072007, -0.040160272, -0.082967638, -0.017798113, 0.040868034, -0.029959321, 0.066086584, 0.019326679, -0.078334092, -0.11463244, -0.046615706, -1.0085171e-11, 0.036897149, 0.033906594, 0.046257542, 5.3349813e-26, -0.073446386, 7.5930405e-14, -0.079954011, 0.045057315, 0.061220922, -0.14890388, -0.063327118, 0.019153992, 0.017595632, -0.057549684, -0.0056914544, -0.0015279651, 0.051518942, -0.010209137, -0.02060751, -0.044950671, 0.011003122, -0.043407036, -0.084226907, 0.010180812, -0.053788831, -0.064936892, 0.070940106, -0.0074351438, 0.1241897, -0.034100899, 0.032208776, 0.061126389, 0.10457897, 0.032153633, 0.072624592, 0.044124518, 0.063786694, 0.061267324, -0.07445415, 0.0077563849, -0.090918575, 0.027104259, -0.00028960858, -0.030126674, -0.063742083, 0.075585676, -0.10800001, -1.5315928e-13, -0.10798053, -0.046305754, -0.060015534, -0.010040455, -0.047071051, 0.017689789, -0.058304763, -0.034409315, -0.036002118, 0.069561114, -0.064136349, -0.02232322, 0.047999259, 0.0005093498, 0.03038737, 0.031337366, -0.05948439, 0.063309866, 0.097016056, 0.080548487, 0.049504078, -0.041703284, -0.09259026, 0.096756225, 0.01252154, 0.0033931011, -0.063338419, 0.036110735, 0.11114592, 0.086446481, 0.020851616, -0.019980349, 0.067612018, 1.5629581e-15, 0.081586067, 0.0029272951, -0.078629355, -0.031421956, -0.052396982, -0.095387176, 0.050846779, 0.04447164, 0.0033923279, 0.047825714, -0.044551071, 0.08665031, 0.021682119, 0.038401723, 0.087007361, 0.036056761, -0.099789995, 0.056692729, 0.061101579, 0.028044302, 0.00458768, -0.11288478, -0.076070926, -0.056313323, 0.054373653, -0.0031499413, 0.037842333, -0.054033296, -0.11077705, 0.013009216, 0.10183358, -0.056853645, -0.015504675, -0.065286916, -0.049201349, 0.027840326, -0.074885903, -0.055829165, 0.087790474, -0.10032229, 0.067693082, 0.044767903, 0.051507203, -0.018374666, -0.062390257, -0.18288348, -0.03322396, -0.065228897, -0.058882873, 0.003217848, -0.022901309, -0.13622878, -0.14199731, -0.0026261273, -0.14802909, 0.036168721, 0.057013314, -0.074414346, 0.092206393, 0.048237521, 0.11342081, -0.10131585, 0.05539427, -0.12836023, 0.062715562, -0.012619738, 0.078260301, 0.10676818, 0.10297091, 0.037869334, -0.089585474, 0.054564089, 0.066076362, 0.10827503, 0.072382443, -0.16387393, -0.1072259, -0.093079049, 0.090751136, -0.010219026, 0.087121234, -0.065558802, 0.079473032, 0.031897498, 0.085978433, -3.0017058e-23, -0.090929218, 0.03189663, 0.044451621, -0.10050611, 0.0046650131, 0.035196706, -0.14223698, 0.10157477, 0.047497445, -0.024906887, 0.046450602, -0.022598383, 0.14640919, 0.11576961, -0.01663664, -0.10765149, 0.10125808, -0.078827114, 0.10598738, 0.026757317, 1.1246583e-25, 0.0480593, 0.029177668, 0.065179108, 0.094517195, -0.19663545, -0.1460851, 0.041634228, -0.032667555, 0.15516797, -0.044818567, 0.050441483, -0.07583095, -0.021151652, -0.12483675, 0.048156348, -0.12627334, 0.11618229, 1.3731314e-16, 0.07614036, -0.10201089, -0.03453024, -0.15910839, 0.088863775, -0.12678294, 0.097182941, 0.047784838, -0.099042331, -0.006620385, -0.061263482, 0.018143782, 0.064768906, 0.12556141, -0.046921329, -0.08141299, -0.096477585, -0.05803376, -0.064580897, -0.049412891, 0.0097461514, 0.058238281, -0.041065954, 0.00028193109, 0.017343213, 0.017550391, -0.063194105, 0.043718792, -0.0032325947, 0.055541903, 0.0099908569, -0.015524815, 0.1207518, -0.06301178, 0.046706593, -0.15121888, 0.05947434, -0.034040967, -0.048674022, 0.0073625552, 0.029941119, 0.091809672, 0.024898109, -0.00229424, 0.077305428, -0.038884886, -0.099154642, -0.070576506, -4.9871207e-15, -0.042764845, 0.0039225054, 0.055231893, -1.7387998e-13, -0.036147371, 5.5855295e-10, 0.0089002896, 0.089788932, -0.062361945, 0.10798145, -0.062175383, 0.081381978, 0.11907735, 0.0071225657, 0.0090541075, -0.05432355, 0.060796947, -0.026586299, 0.046099783, 0.034715659, -0.022323966, -0.012645989, -0.2296061, -0.033010393, -0.019737223, -0.078652805, 0.070014403, -0.074760674, -0.09186553, -0.047539294, 0.09749861, 0.087633603, 0.0028685541, -0.054785575, -0.14387941, 0.12422269, 0.053567285, -0.020092333, 0.0069907756, 0.084536236, 0.11744312, 0.12919226, 0.063341298, -0.021631406, 0.077689765, 0.018960495, -0.064277065, -1.2484987e-27, 0.070688557, -0.0090483436, 0.047371541, 0.047988433, -0.056232284, 0.040985066, 0.051762833, -0.018936949, 0.028645317, -0.14934701, 3.8837688e-29, 0.026385071, -0.10787176, -0.039057442, 0.0058555664, 0.026643053, 0.075586892, -0.056422455, -0.047352896, 0.045893857, 0.034220702, -0.0046747149, -0.10436053, -0.090061465, -0.088294049, 0.11127584, -0.097105405, 0.016508612, 0.0077625946, 0.076214131, 0.031768467, -0.08366266, 0.0071493263, -1.049802e-27, 0.013627674, 0.00023508842, -0.05788194, -0.17124397, -0.093365537, -0.048374906, -0.047733381, 0.02961472, 0.018860466, -0.1302382, 0.087633114, 0.1205411, 0.093829228, 0.068458502, 0.10451763, -0.17685715, -0.080888708, 0.047744008, 0.09447592, -0.18527019, 0.016856649, -0.088682188, 0.064915583, -0.0080830331, -0.054249083, -0.10807961, 0.054933022, 0.10269223, 0.050398201, 0.13613965, -0.02365638, 0.0017000068, 0.070733543, 0.04063392, -0.092082225, -0.080845649, 0.05715447, 0.091331539, -0.063684518, 0.0060811145, -0.017204376, 0.045162186, -0.0032804117, -0.025863929, -0.13316969, -0.21629781, 0.041943723, 0.0045384539, -0.1618863, -0.17340222, -0.050127607, -0.28460149, 0.11941489, 0.020995818, 0.35313423, -0.094014344, 0.16075869, -0.13354882, -0.13133056, 0.14674745, 0.014529471, -0.069713876, 0.045686362, 0.13142797, -0.12115579, 0.13900078, -0.075026837, -0.057002826, -0.012710623, -0.11463826, 0.092421299, -0.13448069, -0.13323869, 0.035846994, 0.070093509, -0.062930308, -0.059067878, 0.032988084, 0.057150284, -0.05835007, 0.01339097, 0.15876002, -0.037848146, 0.069771986, -0.088531517, 1.0257471e-30, 0.058125245, -0.0073353545, 0.069696619, 0.17019497, -0.015611213, 0.026602183, 0.10310561, 0.091152167, 0.18965535, 1.2380939e-18, 0.11120433, -0.0087418204, 0.15589331, 0.0022303167, -2.2735138e-30, 0.070561578, -0.07549744, 0.18332136, 0.041472859, 0.077063497, -2.2902888e-16, -0.013932642, -0.13197738, 0.027750945, -0.092428564, 0.13578834, -0.46743963, 0.060629541, -0.069487857, 0.19194215, -0.07012013, -0.017959663, 0.041611554, 0.0063387522, -0.0095972848, -0.061872279, 0.037919437, 0.16033002, -4.5588615e-13, -0.13541522, -0.27054449, 0.060458928, 0.23459229, 0.084363561, -0.014523974, 0.11999899, 0.12772314, -0.11885972, -0.14183616, 0.047986714, 0.18384102, -0.028334889, -0.046668592, -0.042619817, 0.2983784, -0.11570519, 0.09315268, 0.12303027, 0.16574548, 0.089612485, 0.016008965, 0.036447967, 0.030848557, 0.0072770713, -0.13518438, -0.11873935, 0.0100608, -2.0426017e-14, -0.10812124, -0.060148325, 0.044992665, -0.044472297, -0.00090131243, 0.029425301, -0.13996266, 0.11272892, 0.15043889, 0.032026196, 0.16488148, 0.10069262, -0.10243257, 0.060152832, -0.0081874127, -0.15542542, -0.025754965, -0.10098788, 0.12199959, 2.8372141e-22, 0.0032351132, -0.070557976, 0.1617557, 5.8493858e-12, 0.12803854, 8.1937954e-05, 0.099917189, 0.029703252, -0.018388999, -0.097337852, 0.069036928, 0.03477741, -0.062020742, 0.01057734, 0.1611264, 0.081671318, -0.044812956, 0.036154818, -0.045194704, 0.063849261, -0.01760308, -0.028202968, -0.096807578, -0.03419898, -0.19312513, -0.11623247, 0.13632818, -0.01149624, 0.20778097, 0.035158465, -0.28879475, 0.047419737, 0.0057176795, -0.055388862, 0.41356025, 0.044361504, 0.10970635, 0.10256691, -0.070148856, -0.016908499, 0.078551935, -0.06371613, -0.070881632, 0.05630666, -0.1408328, -0.072425703, -0.12931595, -1.8970056e-18, -0.027004666, -0.12889946, -0.15592727, 0.019946017, 0.020825274, -0.13307115, 0.046583896, -0.056141794, -4.127312e-28, -0.19647814, -4.1155041e-11, 0.016365531, -0.30781375, -0.071101761, -0.11199746, -0.052141735, 0.090286183, 0.13692709, 0.13555796, -0.017433262, 0.082211362, -0.096921715, -0.069521113, 0.019092883, 0.0664026, 0.16963217, 0.0056069969, -4.8663035e-14, -0.016585322, 0.085272032, 0.0008955005, -0.15585961, -0.051909427, -3.6670136e-12, 0.033309793, 0.19380666, -0.11509342, -0.17369185, -0.023764752, -0.097053239, 0.05733152, -0.063278211, -0.12422469, 0.0038641507, -0.065899838, -0.32488942, 0.1916944, -0.12325666, 0.12781507, -0.33132907, -0.15486138, -0.085419769, 0.036342065, 0.24426154, -0.14778764, 0.031139667, -0.036936374, -0.038858833, 0.0065542838, -0.40174799, 0.079551604, 0.084784484, 0.0027064521, 0.2220964, 0.01203319, -0.011345401, -0.1188852, -0.030258996, -0.016192783, 0.0015714077, 0.18504624, -0.22245748, -0.041113504, 0.069397976, -0.062895638, 0.060511188, -0.073071012, 0.079458235, -0.020860105, -0.026259717, -0.078539021, 0.045990014, 0.078064593, -0.0042975683, -0.060661295, -0.076098661, -0.040663744, -0.0019001861, 0.038457199, -0.11055955, -0.094539312, 0.094125394, -0.071680751, 0.034340783, 0.035333657, 0.04552841, -0.085340553, -0.058961829, 0.072109896, -0.019248822, 0.02241449, 0.11888616, 0.0024430538, -0.094195811, 0.088543829, 0.11200967, -0.035107369, -0.044454118, 0.0085708207, -0.035263559, -0.015971986, -0.017308186, -0.066505287, 0.065371676, -0.11908933, 0.038885775, 0.046856207, -0.0091923548, 0.063526931, -2.2168661e-30, 0.089473179, 0.055595739, -0.14943704, 0.0036430452, 0.095700321, -0.03420402, 0.061068834, -0.0097785533, -0.03719399, -0.00049540837, -0.03027582, 0.017657259, 0.10024186, 0.052748984, -0.039127881, 0.063199033, -0.10270186, -0.018483637, -0.085771192, 0.049844568, 3.5784466e-25, -0.079612254, -0.070607085, -0.068726698, -0.032743805, -0.020505494, 0.071387533, -0.10424598, -0.19430651, 0.024541583, -0.075312121, -0.090334354, -0.05896031, 0.076178128, -0.0086524082, -0.0092465516, -0.093090346, -0.022630897, -5.8545187e-21, 0.015616141, -0.017074765, -0.019622013, 0.027368044, -0.030332391, -0.018199953, -0.069285563, -0.013279858, 0.0055203315, -0.046897937, 0.038037238, 0.097715616, -0.08713858, -0.14492945, 0.0038616249, 0.064123628, 0.013645952, -0.10749104, -0.033891369, 0.045412133, 0.048509456, -0.0033011038, -0.088161656, 0.0039322296, -0.020205765, 0.057722363, -0.01559134, 0.070488937, -0.029528239, 0.062075493, -0.13310141, 0.031975457, 0.073992738, 0.050673117, 0.076417581, -0.028693646, -0.014008953, -0.052011184, 0.084569824, 0.061374041, 0.11748793, -0.049018735, -0.083305982, 0.067331232, 0.023161421, 0.04066598, 0.053558049, -0.093068476, 4.4206716e-16, 0.055051805, 0.090889011, -0.025335235, 8.4488939e-13, -0.054673514, 2.1992153e-12, -0.091318087, -0.018909456, 0.062339863, 0.10017029, 0.050751741, -0.040440451, -0.021396341, 0.022826923, -0.010704962, -0.010397329, 0.0061428285, 0.058840359, 0.044992512, 0.046531908, -0.053255978, -0.054586789, 0.081506601, 0.074927871, -0.062822857, -0.10307439, -0.073768271, 0.058110937, 0.10601447, 0.046820655, 0.10194936, -0.091758928, 0.07903119, 0.023601025, -0.016758381, 0.0085870489, 0.08481978, -0.12714811, -0.071176164, -0.080707701, -0.067479996, -0.069491385, -0.012175938, -0.040706563, 0.074738495, 0.045700211, -0.10401795, -5.5055085e-12, 0.013923895, -0.099517898, -0.021335479, -0.041456109, -0.017867055, 0.01543988, 0.10044633, -0.050614992, 0.043934121, -0.046693527, -0.069054155, -0.010997325, 0.066735219, -6.0231848e-12, -0.088363361, 0.0078232416, -0.010277604, -0.0013578431, 0.073567404, -0.073321919, -0.0039400134, -0.065391921, -0.098596806, 0.010293652, -0.13962789, 0.091837046, -0.13344139, 0.039212577, 0.0066468114, 0.087916955, -0.088906039, -0.044713234, -0.011373012, 8.6476826e-20, -0.005318581, -0.086468473, 0.0090808162, 0.1192621, -0.10511083, 0.080478261, 0.061737416, -0.0791128, 0.0096467087, -0.061060201, 0.0089681908, -0.054160931, -0.010990732, 0.071916016, -0.00060226069, -0.0059786485, 0.078088612, 0.10625793, 0.092310129, 0.10002626, -0.061701197, 0.0087112922, -0.033111975, -0.095145638, -0.084378267, -0.033602693, 0.082455214, -0.069422982, -0.067288505, 0.0045499998, 0.043783965, -0.012794948, 0.036309697, 0.0089782494, 0.066155876, 0.0016968795, 0.015337307, 0.057171158, -0.10293968, -0.0054763229, -0.081234006, -0.023597491, 0.022893541, -0.075646412, 0.07096512, 0.032458961, 0.094703925, -0.023266692, 0.1076777, 0.028470522, -0.055893071, 0.13443286, 0.11791648, -0.031819479, 0.045545205, 0.041580109, -0.0090111614, -0.0077418139, 0.11940213, 0.11178883, -0.10833429, 0.081665801, -0.063209815, -0.10971207, -0.031365691, -0.11370142, -0.067547079, 0.053775963, 0.0033349639, 0.084611474, -0.1200724, 0.10446041, -0.015182992, -0.19903697, -0.0022958771, 0.0097635314, 0.029972676, 0.056950929, -0.065633439, -0.010203988, 0.050503315, 0.19851271, -0.069385785, 0.042672806, 0.033459833, 2.5607191e-12, -0.032800742, -0.037347844, 0.02899826, -0.015621336, 0.063842491, 0.034486737, 0.010212654, -0.13735344, 0.026760012, 0.029788142, 0.025476709, 7.8294684e-11, -0.0064412037, 0.026520045, -0.078793101, -0.064712083, 0.13090009, -0.083800344, 0.060791769, 0.042495836, -3.6006994e-25, -0.022220741, 0.12343245, -6.1430884e-24, 0.039556045, 0.098227925, 0.0049864274, -0.0052897491, -0.043588208, 0.038569349, -0.07014159, -0.096561103, -0.05258934, -0.10619731, 0.0015852053, 0.014280737, 0.09457405, -0.045575915, 2.9640025e-26, 0.071093142, 0.12425462, -0.047110085, 0.040098552, -0.14765489, 0.035778505, 0.077824098, -0.11817304, 0.0047851459, -0.053030728, -0.12005596, -0.060508299, -0.079003519, 0.094702907, 0.082364103, -0.056271167, 0.030565721, -0.15373795, 0.016865124, -0.069615392, -0.018102061, -1.9126939e-13, 0.041136693, 0.037040451, -0.10807862, 0.021901921, 0.055537922, -0.062268476, 0.028987697, 0.097834429, -0.072179707, -0.05339903, 0.059469922, 0.0016854134, 0.10320557, 0.045905457, 0.068268176, -0.011054681, 0.057660759, -0.095620317, 0.086833409, -0.044754712, -0.43361034, -0.00027147247, -0.003327292, 0.10939134, 0.11739223, 0.03728905, -6.904661e-31, -0.035507405, 0.070943626, -0.016238488, 1.0260624e-13, -0.11516083, 1.5304333e-30, 0.067959489, -0.015326564, 0.09863533, 0.071677896, 0.11528734, -0.069401634, 0.042675576, -0.018183769, 0.036323751, -0.087093537, -0.10849986, 0.10957727, 0.056784924, -0.050044048, -2.7574019e-05, -0.038370585, 0.066325421, 0.0301751, 0.15038293, -0.044548507, -0.11289648, -8.7009482e-12, 0.039119111, 0.076441434, 0.15461987, 0.041802777, -0.043224174, 0.042606075, 0.077900217, -0.052984247, -0.092621391, -0.039527136, 0.048472873, -0.015190942, 0.067683021, -0.18331137, 0.033316935, 0.052712448, 0.10559308, 0.10517726, 0.077521593, 6.3560075e-11, 0.039413297, -0.036501688, 0.13025914, 0.11503393, -0.092037763, -0.10587708, 0.069921266, 0.03389595, 0.0061013426, -0.070777966, 0.015758304, 0.064855038, 0.093668706, -1.1530348e-12, 0.026518488, 0.011541013, -0.022299305, -0.07389294, 0.069955795, -0.009535252, 0.017307581, -0.032280643, 0.10230576, -0.11035717, 0.048921405, 0.0051867427, -0.068723143, 0.061062997, -0.087523109, -0.084047516, -0.058888772, 0.0022471967, 0.0080567374, -4.0598866e-22, 0.058263051, -0.025640546, 0.07150983, -0.08642598, 0.11052151, 0.010804465, -0.086135683, -0.048368646, -0.031791643, -0.020049099, -0.037557466, 0.018385904, 0.03842883, 0.099241567, -0.054762354, 0.012972674, -0.049625234, 0.0043101735, -0.023767998, -0.094589471, 0.0097213355, -0.012600021, -0.057985872, -0.0007808991, -0.032267779, -0.060307093, -0.08460022, -0.04978797, 0.084739566, -0.056661499, 0.0021321976, -0.01656735, -0.14701212, -1.1146328e-24, 0.039830085, -0.085298647, -0.11976944, 0.14494737, -0.012516991, 0.1121185, 0.00021169696, -0.08231226, -0.0040049347, -0.080700603, -0.10494345, 0.059078388, -0.017350136, 0.1058484, 0.099754349, -0.10806392, 0.0063352429, -0.02267943, 0.072836522, -0.067268964, 0.043222697, -0.049647791, 0.0020301001, 0.052337037, 0.0050875984, 0.068294281, 0.069175205, -0.037315555, -0.086162955, 0.0050340577, -0.095589964, -0.022666323, -0.036417397, 0.14916767, -0.019973755, 0.0039320591, 0.089978742, 0.17134763, 0.035848848, -0.034224842, -0.068085219, -0.029823056, -0.068864364, 0.098253669, -0.064626895, -0.046545345, 0.02559874, 0.060244052, 0.0075970004, 0.064739865, 0.064807657, 1.1534014e-31, 0.069210307, 0.054381491, 0.11493332, 0.072954225, 0.10081483, 0.056274152, 0.034966665, 0.014645672, 0.10433231, -9.0357851e-27, 0.08255759, 0.01039242, 0.037140102, -0.045376941, -0.00019411003, -0.059868451, -0.076620916, 0.032570786, -0.0080419073, -0.050352114, -1.3407987e-29, -0.11151953, 0.025882828, 0.088538699, 0.09979016, -0.12000789, -0.029872601, -0.12060254, -0.077580636, 0.13826582, -0.080387386, -0.030031516, -0.033239185, 0.063281453, -0.017212272, -0.035072993, -0.015802353, -0.062258849, 3.4020538e-25, -0.11201206, -0.022537751, 0.025655176, 0.060072594, 0.09819531, -0.044161603, 0.043780098, 0.070075374, 0.053627565, -0.058163028, 0.03728763, -0.11985294, 0.061538614, -0.044198575, 0.12634029, 0.080433583, 0.0033434688, -0.10659725, 0.025344971, -0.027599217, -0.010216983, -0.049185829, 0.066893734, -0.0054209942, -0.013358335, 0.090276898, 0.048695992, -0.037889719, 0.0030350984, 0.032775271, -0.069819939, 0.054913355, -0.05606855, -0.044418577, 0.076752087, 0.085456859, -0.043199511, 0.092778386, 0.031663853, 0.010740107, 0.18823303, 0.080288823, 0.02586927, -0.048843567, 0.016590178, 0.0028501565, 0.073447893, 0.0083599135, -1.5221304e-22, 0.018104435, 0.036728236, 0.10369352, -3.9617464e-14, -0.0013771997, -1.0438211e-13, 0.042830524, 0.048439568, -0.011392135, 0.0034492154, -0.043806207, 0.0047813474, -0.051240478, -0.088489963, 0.093207721, 0.04662105, -0.035400085, -0.062725903, 0.023229883, -0.085673497, 0.042640641, 0.033712167, 0.048299705, -0.092075381, 0.11598605, 0.046165341, 0.035127395, -0.012899376, -0.017135529, 0.035095543, -0.0013222544, 0.10138644, -0.067704801, 0.015419815, -0.11848976, -0.072499295, -0.18803052, -0.05570906, 0.0064391511, -0.077999463, -0.068146858, -0.059530943, 0.0073222657, -0.11244521, 0.12538827, 0.036540814, 0.040625849, 1.3133755e-12, -0.030266829, -0.00043652097, 0.09996787, -0.052237451, 0.038724192, -0.090805441, -0.039426738, 0.07334453, -0.0039196042, 0.027482821, 0.046548324, -0.050268451, -0.00031862916, -0.053964639, -0.093220612, -0.03790364, 0.063403537, -0.017984531, -0.032634739, -0.068744822, 0.17954248, 0.061164048, -0.033725023, 0.088368231, 0.026198983, -0.057274389, -0.019068664, -7.1289746e-10, -0.049395148, 0.033950503, 0.074174757, -0.016537068, -0.024308702, 9.035247e-12, -0.052930863, 0.085358536, 0.081606774, 0.10998186, -0.057453743, 0.0060880977, 0.02430132, -0.0007680056, 0.12155136, -0.047917477, 0.019173608, 0.029856414, 0.011676583, -0.0040922878, 0.096854353, 0.060303345, 0.021565468, 0.02061842, -0.063113157, -0.065784153, -0.014720275, -0.029470249, -0.014770314, -0.05120424, 0.0091143715, 0.044167682, -0.020157499, 0.081787029, -0.036649269, 0.19136446, -0.079953696, -0.11750652, 0.028507389, -0.10346879, -0.027380895, -0.00057980609, 0.090784262, 0.098390741, -0.0068573184, 0.075880624, 0.10709031, -0.06234208, 0.066619644, 0.058711948, 0.02177596, -0.031400541, -0.10067445, -0.045209212, -0.099583966, -0.095706556, 0.065970021, -0.011737838, -0.083098176, 0.077016961, -0.088309355, 0.042740515, -0.033780718, -0.079835056, -0.012914499, -0.043061974, 0.026591177, -0.10847758, -0.029904704, -0.035367772, -0.060764212, 0.064437244, -0.054406783, 0.0060476063, -0.079781056, 0.065232898, 0.10166706, 0.13497702, 0.10152115, 0.022415056, -0.054991539, 0.029290676, 0.036819373, 0.079022634, -0.056534552, -0.013742035, 0.071375155, -0.045924059, 0.0036289013, 0.084236202, 0.034473434, 1.3948855e-18, -0.0013377488, 0.12233862, -0.075587004, -0.044682447, -0.023763151, 0.042438993, 