#pragma once

inline constexpr int N_INPUTS = 5;
inline constexpr int N_LAYERS = 2;
inline constexpr int LAYER_SIZES[] = {32, 32};
inline constexpr float INPUT_MEANS[] = {-0.21484518, 0.32106814, -0.019214123, 0.070812084, 6.3709137};
inline constexpr float INPUT_STDS[] = {0.46568395, 0.42747023, 0.97847607, 0.78318233, 4.5476976};
alignas(64) inline constexpr float W0[] = {0.1208802, 0.40073485, -0.53245988, -0.038179891, -0.53876493, -0.58845696, -0.12925415, -0.090192662, 0.079859361, -0.0082730235, 0.17654473, 0.2633309, -0.092079529, 0.12004618, -0.41731336, -0.00090155788, -0.027077395, 0.12733618, -0.58245426, -0.22304436, 0.14487858, 0.24478009, -0.21750435, -0.025789947, 0.52007157, 0.21882911, -0.31547747, -0.39563431, -0.31053416, 0.5296524, -0.24844874, -0.17629429, 0.38745788, 0.31419286, 0.29585901, -0.058397778, 0.14308583, 0.35551628, -0.58573191, 0.12088891, 0.70539529, 0.0024214391, -0.29658812, 0.15347202, -0.34464078, 0.12014139, 0.27181361, -0.10132016, -0.031236213, -0.27180421, -0.51964009, 0.1596051, -0.41537397, -0.039318658, 0.10342723, -0.58393853, -0.062960555, -0.21812546, 0.23059914, 0.26404147, -0.29265442, -0.17258456, 0.0021027329, -0.071937224, -0.78956176, -0.042538286, 0.030778, 0.1891118, 0.39865075, -0.068734225, -0.0070050819, -0.36646293, -0.23090099, 0.55665838, -0.1984072, -0.176534, 0.48553496, -0.22192987, -0.038084944, -0.12193799, 0.53929777, -0.15828817, 0.24889241, 0.0082198274, -0.33661992, 0.80121905, -0.19321872, 0.21521758, 0.25891158, -0.00075888306, -0.31526315, 0.3534913, -0.27845148, 0.25851035, 0.17483996, -0.071397429, 0.50452028, 0.039387861, -0.55170642, 0.055956759, -0.11065274, -0.055074012, 0.16576294, 0.018509275, 0.36966598, 0.62977785, -0.1434948, 0.39221486, 0.20012106, 0.56513036, -0.31219439, -0.87158443, 0.90327073, 0.50467365, -0.45372137, 0.012085067, 0.44923237, 0.64137661, -0.16209741, -0.11739856, -0.21252597, -0.83317945, -0.70925717, -0.24061319, 0.43079637, -0.15494468, -0.066222553, 0.49166793, -0.33449437, -0.20555657, -0.031752706, 0.42685135, 0.068634548, -0.38617282, 0.37273916, -0.11782973, 0.22448365, 0.032886675, 0.4468489, 0.28780043, 0.13717627, -0.45895169, -0.2909866, -0.38182386, -0.11031992, -0.4187007, -0.13911923, 0.325397, 0.060623835, -0.40281047, -0.37690354, 0.40865994, 0.1541685, -0.41906064, -0.19783512, 0.11092307, -0.27714493, 0.003681211, 0.55419273, 0.44446445};
alignas(64) inline constexpr float B0[] = {-0.073698838, 0.13524447, 0.25758814, 0.37690925, -0.078605758, -0.30648181, -0.32927221, -0.076162084, 0.19301575, 0.046810673, -0.063213739, 0.46165956, 0.25889181, -0.071648194, -0.068705642, 0.10982476, 0.12025901, -0.1405659, -0.16215785, 0.054842332, 0.045112401, -0.24850857, 0.31476517, -0.40390889, -0.21496957, 0.15462056, -0.27105101, 0.2064441, 0.10274298, 0.50931985, -0.15703802, -0.44005781};
alignas(64) inline constexpr float W1[] = {0.45730126, 0.10803957, 0.13097796, 0.41370119, -0.49447547, -0.40800481, -0.0059765263, 0.44133449, 0.10791178, 1.5642819e-22, 0.43442252, -0.024569118, -0.077472071, 0.14875246, 0.27188331, 0.37641086, 0.19266222, 0.43180075, 0.10745663, 0.24949374, -0.31943422, -0.050101864, -0.36861594, -0.022249736, -0.31720541, 0.49202833, 0.015657348, -0.67245322, -0.32913577, -0.25364881, -0.29223653, 0.045933222, 0.22816643, 0.17639652, -0.080352389, 0.39248973, 0.13673726, 0.086254067, -0.07150296, 0.15131267, 0.0099887837, -0.14921329, 0.18561714, -0.048140073, -0.25671219, 0.22769919, 0.20586517, 0.50486484, -0.19391976, 0.42819303, 0.23890756, -0.22585544, 0.052263511, 0.2540912, -0.2191201, -0.067015003, 0.080645614, 0.47150298, -0.3169241, 0.16873426, -0.20525569, 0.15554873, -0.053550684, 0.042313867, 0.2284471, 0.014726419, -0.19614135, 0.16555251, 0.24581918, 0.42290535, 0.31386088, 0.21558285, 0.29284645, -0.13017617, 0.2411754, 0.11769124, -0.085193215, 0.031707723, 0.10825846, 0.032532985, 0.11194301, 0.071696393, 0.38719135, 0.083051764, -0.22518011, 0.05483714, 0.080185542, 0.11894149, 0.21302291, 0.36192623, 0.27646503, 0.056592918, -0.094472485, 0.33858879, -0.056032954, 0.15777461, 0.028962739, 0.23902825, 0.09134955, 0.11891782, 0.14604885, 0.13394079, 0.036690015, -0.3390287, 0.03106918, -0.25574617, 0.28827156, -0.084852863, 2.6453234e-05, 0.16633844, 0.14395189, 0.099058449, -0.155603, -0.058813727, -0.15275227, -0.19219543, 0.15058702, -0.097509393, 0.36885696, 0.19138666, -0.18051087, -0.23550108, -0.0097906381, 0.11411529, 0.22631939, -0.084865443, -0.15421334, 0.30130377, -0.22686944, 0.17107974, -0.028223508, -0.29876051, 0.24265241, 0.31369652, 0.066611249, -0.062167655, 0.28043489, 1.5546649e-10, -0.26251437, 0.40760024, -0.17452125, -0.19415091, 0.22993757, -0.47876264, 0.054565357, 0.09401086, 0.056775948, 0.0052925722, 0.41182018, 0.18667514, 0.48509769, 0.1304265, -0.00040160627, -0.080331729, 0.27149228, 0.34321996, 0.4013638, -0.036123051, 0.10373438, 0.35639505, 0.26217991, -0.24334305, -0.035958676, 0.053516794, -0.065457509, -0.33299402, -0.017965603, 0.44882766, -0.30284478, -0.00012390838, 0.41604026, -0.079246478, 0.26997256, 0.26095623, 0.50799154, 0.40953751, -0.055555416, -0.045590438, 0.087823955, -0.3059307, -0.31909949, 0.30625813, -0.47798216, -0.033088118, 0.00014494278, 0.32399086, -0.024245956, -0.17947785, -0.14637233, -0.14989011, 0.21623057, -0.31300816, -0.36248783, 0.016629495, 0.27023948, -0.12673121, -0.057287417, 0.29728182, -0.017007574, 0.10600429, 0.1132061, -0.27756873, -0.079504252, 0.35319989, -1.608558e-13, 0.040856603, -0.16497506, -0.077428928, 0.3262894, 0.070306011, -0.36009091, 0.093669299, 0.13583967, 0.16782813, 0.042022436, -0.19474251, -0.28168927, -0.1249498, 0.11570078, 0.27687168, 0.32515859, 0.26932401, 0.14047784, 0.050838137, 0.47982001, -0.10388605, 0.12991683, 0.15910487, -0.34515005, -0.48660551, -0.3665217, -0.18298338, -0.11113677, -0.22818123, -0.1911406, 0.1006154, -0.074346452, 0.24027743, 0.089900413, 0.22347506, -0.051162593, 0.078137192, 0.27882403, -0.088091745, 0.17920392, -0.18774922, 0.028707296, -0.25786801, 0.054554659, -0.18101619, -0.12896548, -0.51685259, 0.21001659, 0.15705888, 0.13153344, 0.18010976, -0.20495062, -0.12152875, -0.063694056, 0.0069360136, 0.42704738, 0.55584495, 0.33903317, 0.056644981, 0.43309717, 5.4143941e-18, -0.028460543, 0.054855129, -0.2157268, 0.045697671, -0.24599631, -0.10170559, 0.11390766, -0.13282218, 0.13335113, -0.15543684, 0.16639221, -0.024537036, 0.47048603, -0.14141709, -0.081009026, 0.08794106, 0.54083338, -0.1265747, 0.29189969, 0.41419065, -0.37339615, 0.17989238, 0.4700831, 0.17702945, -0.12628607, 0.32851633, -0.40018278, -0.42273965, -0.35036854, -0.15772972, -0.27849204, -0.12390276, 0.29407115, 0.0053826358, -0.056401122, 0.13710732, 0.26950241, 0.8212509, 0.14798447, 0.50223267, 0.5443157, -0.18339378, -0.40964103, 0.098620298, -0.37888721, -0.24265414, 0.040741852, 0.28253576, 0.02529116, -0.64363156, -0.10024252, -0.5207001, -0.060691834, -0.34565137, -0.41565805, -0.089208913, 0.21885312, -0.10479875, 0.20951285, 0.082911461, 0.20138182, 0.22820306, 0.38211936, 0.034559565, 0.17662385, 0.38856353, -4.4529568e-17, -0.39578994, -0.44797883, -0.34840815, -0.0074313043, -0.19190827, 0.1901933, -0.22978985, 0.4275413, 0.0759197, 0.39007792, 0.012888468, 0.08638469, -0.091936202, 0.02245903, 0.10465751, 0.13036522, 0.28331791, 0.074286076, 0.11443, -0.076565834, -0.31717725, 0.24886906, -0.12894292, 0.43516388, 0.0014207026, 0.073763856, -0.051859928, 0.28980373, -0.026931741, -0.079687283, 0.039607195, -0.0017902357, 0.021822991, 0.25980718, -0.08299923, -0.41325793, 0.026107938, 0.10902048, -0.32197528, 0.21613109, 0.2452325, 0.13139406, 0.19480691, 0.054400591, -0.15142843, 0.22094061, 0.3384361, 0.31471672, 0.22126467, 0.039294033, 0.16186326, -0.10149251, 0.050614827, 0.15147041, -0.087971756, 0.33941524, -0.020202406, 0.28794341, -0.26040195, 0.35596946, -0.057120352, 0.1884371, 0.026211629, -0.073521114, 0.1347672, 0.022276567, 0.25784296, 0.12849293, -0.16868455, -0.075930094, -0.2152701, -0.13170743, -0.021444402, -0.13409539, -0.2975639, 0.07358802, 0.26524905, -0.20979116, -0.047917915, -0.066225083, 0.37732194, 0.046326163, 0.11274223, 0.07390321, 0.16027751, -0.12662496, 0.35998396, 0.087131178, -0.073576081, -0.12881539, 0.39576323, -0.28086615, -0.1807305, 0.07053977, -0.090638655, -0.00011572433, 0.23551143, -0.037801836, 0.27604938, 0.074061006, -0.06495664, 0.17404288, 0.11837443, 0.0047008728, 0.17269333, -0.039402081, 0.10461006, 0.24260718, 0.085084934, 0.19489521, -0.48067391, 0.12659302, -0.219992, -0.15195877, -0.20973099, -0.020743977, 0.18695035, -0.15227662, 0.10618827, -0.097529524, -0.30475698, -0.18860827, -0.17148258, -0.073408305, -0.14724986, 0.015363516, -0.26790775, 0.159924, -0.14074784, 0.42351558, 0.007789695, 0.0058801517, -0.17851781, 0.27525776, -0.21188198, -0.050850495, 0.24088283, -0.1328232, -0.016102894, -0.16579729, 0.27482276, 0.16036133, -0.13009402, 0.16558409, -0.36051924, 0.15713814, -0.036008543, 0.35729247, 0.10015565, 0.018256383, 0.44694749, -0.30904509, -0.5775127, 0.0047329823, 0.36810677, -0.064166286, -0.017072025, 0.30409785, 0.010995673, -0.087354405, 0.33380139, 0.41705225, 0.46370829, -0.066438266, 0.30085408, -0.11925598, 0.13387548, 0.12474585, 0.0090688448, -0.25658692, -0.18827665, -0.14209911, 0.43798158, -0.17702897, -0.37119722, -0.34478435, -0.36054982, -0.0066001736, -0.25863572, 0.40775565, -0.078265898, 0.080482821, 0.11256961, -0.39219955, -0.35901611, -0.44263433, 0.099098927, -0.3773959, 0.05669451, 0.41988851, -0.24290871, 0.15520025, 0.15185254, 0.36767631, 0.21116898, -0.12726489, 0.44663225, 0.25517099, 0.12964534, -0.10811797, 0.17379556, -0.18767304, -0.24429562, 0.018732739, 0.49998248, -0.26486543, -0.63830841, 0.046236591, -0.46323127, 0.023820336, -0.13689393, 0.74042713, 0.0013960632, 0.057244712, -0.098267367, 0.037831035, -0.64074827, -0.34403523, 0.4641482, -0.56965422, 0.17589684, 0.45958674, -0.3142448, -1.1483898e-06, 0.40462317, 0.31283081, 0.27782869, 0.081295195, 0.49501792, 0.23421706, 0.18122548, -0.19257489, 0.32541622, -0.31175329, 0.011687292, -0.21521897, 0.56115906, -0.68619576, -0.51346933, -0.47690957, -0.4842685, 0.032825966, -0.17478812, 0.48389912, -0.071630407, 0.024816403, 0.32310735, -0.019235509, -0.23021236, -0.079669884, 0.0015804213, -0.16753589, -0.21543693, 0.16038487, -0.28981235, -0.0605838, 0.49849883, 0.19526602, 0.61590837, 0.15910368, 0.15549346, 0.44737729, 0.037676007, -0.28755299, 0.38080271, -0.12819503, -0.11430451, -0.11760477, 0.36817393, -0.93301708, 0.0088299149, -0.2079083, -0.093011495, -0.14432281, 0.03081111, 0.16890739, -0.087089916, 0.15447308, 0.18960931, 0.094185535, 0.46253921, 0.017122347, 0.014430738, 0.2449529, -4.4024516e-06, -0.21615129, 0.13722369, 0.1926974, -0.20161135, 0.1419952, -0.25539241, -0.12238613, -0.25338128, 0.014142635, 0.098925163, 0.22463161, -0.096603228, 0.27051241, -0.2312278, -0.060042483, -0.15812453, 0.13244571, -0.15154988, 0.19897314, 0.25096338, 0.058038891, 0.2133024, -0.38879809, -0.19650468, 0.17119649, 0.061409253, 0.13420714, 0.2221063, 0.22014354, -0.12900243, 0.10131478, -0.11795604, -0.32091925, 0.42158134, 1.6566192e-05, -0.21567898, -0.20659774, -0.24599989, -0.097055393, -0.30083515, 0.10017826, 0.067783553, 0.28567235, -0.30491022, 0.28568007, 0.24300595, 0.24363884, 0.084413549, 0.17285655, 0.32618819, 0.24917811, 0.19409473, -0.034678311, 0.27132367, 0.79506725, 0.090302356, -0.089440484, 0.45670837, -0.72011395, -0.23296021, -0.5331247, -0.08482908, -0.43758595, -0.25328941, 0.32743329, -0.48945587, -4.3656454e-07, -0.056749087, 0.53490326, 0.65071052, -0.16748841, 0.06184962, 0.40406, -0.13141853, 0.041791018, 0.22291707, -0.33387708, -0.30560704, 0.061825292, 0.21238213, -0.58534715, -0.36369061, -0.27404922, -0.34144436, 0.18559582, -0.30210903, 0.35535288, -0.026319062, 0.1572102, 0.0050492545, -0.17314722, 0.25517129, -0.24775295, 0.36995041, -0.014124101, -0.091462903, 0.40708601, -0.27399443, -0.0036361041, -0.19250122, 0.17421513, -0.012110191, 0.045036886, 0.39727421, 0.33214776, -0.062496996, 0.05453473, 0.26966018, 0.053778603, 0.025728509, -0.23843239, 0.037241809, -0.12165808, 0.094683644, -0.067540275, -0.06281308, 0.16089374, -0.055085681, -0.5414653, 0.054235084, -0.13988324, -0.18642625, 0.024234818, 0.30620881, 0.2032503, 0.17963228, 0.044621167, 0.086711026, -0.18431851, 0.33478988, -0.00012169834, -0.39175594, -0.58730198, -0.061536893, -0.18914787, -0.0034022845, -0.27617454, -0.19828928, -0.13072739, -0.22824526, 0.21423625, 0.050494414, -0.26744185, -0.40139812, 0.7509628, -0.0096776117, 0.246737, 0.11504412, -0.053436679, 0.2010771, 0.33025017, 0.17476573, 0.25175621, 0.11783742, 0.072849568, 0.029005802, 0.20974413, -0.20247966, 0.4928578, -0.03532269, -0.051754206, 0.40989022, 1.8327173e-22, 0.11091424, -0.15599641, -0.12836441, -0.23112855, -0.1342478, -0.30216211, 0.077816556, -0.05971655, -0.25454352, 0.53782856, -0.219012, -0.087087753, 0.07316226, 0.40142146, -0.019699334, 0.41040211, 0.49861825, 0.16434361, 0.03671324, 0.32769643, -0.16182544, -0.077856311, 0.43569356, -0.10681862, 0.0070523994, -0.15133908, 0.32451984, -0.23178387, 0.21036531, 0.32405376, 0.032992024, -0.026785354, -0.013257327, -0.048636098, 0.2223821, -0.38875884, 0.29183196, 0.29206463, -0.07762114, 0.056768897, 0.19059003, -0.1494336, -0.26251683, -0.21086772, 0.089487069, -0.27538708, -0.063617211, -0.091292436, 0.0067646097, -0.11055188, 0.06974075, 0.4525515, -0.38477966, 0.10361629, 0.26723386, -0.10051748, -0.19408888, -0.58387325, 0.011841977, -0.58076465, -0.054963141, 0.42619752, -0.56695756, -0.029005493, -0.029230401, 0.49434106, 0.61958319, -0.35909814, 0.20373255, 0.052037058, 0.24807224, 0.13505573, 0.2513577, -0.078705396, -0.1276679, 0.2256879, 0.22063581, -0.48146195, -0.049010569, -0.059820674, -0.57577922, 0.1718652, -0.05296901, 0.13431436, 0.13671304, -0.12394523, 0.14924252, 0.31497743, -0.051458231, -0.053129138, 0.11573711, 0.20900312, 0.02405256, -0.019573402, 0.050229475, 0.20815404, -0.10543975, -0.10659557, 0.31117227, -0.11920004, 0.24215773, 0.21326488, -0.026112482, 0.13205849, 0.098640363, 0.24196746, 0.15677627, -0.1141245, 0.29546639, 0.24612238, -0.052007323, -0.036761296, 0.18318705, -0.23656656, -0.12399959, -0.081840665, 0.18560509, -0.018930465, 0.38422827, -0.15173334, -0.01894315, 0.06524557, 0.17699557, -0.29701803, 0.13476102, 0.37783561, 0.062390903, -0.18532822, 0.24810396, -0.19470319, 0.078220517, 0.23423575, 0.16459804, 0.32637557, 0.029628528, 0.13601183, 0.33192806, -0.093094539, -0.25802107, 0.10623284, 0.085525631, -0.36462501, -0.081988519, -0.33555854, -0.201302, 0.075225423, -0.36276667, 0.11198301, -0.36081833, 0.2549595, 0.1519932, 0.032391941, 0.25819336, 0.14380897, -0.043332945, 0.143255, -0.17214044, 0.052811164, -0.047396362, -0.10037917, 0.13863807, 0.31033838, -0.020877038, 0.081924171, 0.26050651, 0.33451607, 0.12077416, -0.2743504, 0.15998577, 0.12286325, 0.053181495, -0.061730155, 0.31824047, 0.3371542, 0.26876592, 0.09594272, -0.12174956, 0.080802259, 0.13562746, 0.062633368, -0.13090839, -0.078332176, -0.17203945, 0.064141009, 0.50183852, 0.2778611, 0.070731272, 0.13801624, -0.00039474459, -0.31585707, 0.14369675, -2.107326e-05, 0.058627354, -0.037588121, -0.068085279, 0.20351172, -0.37180556, -0.31709198, -0.0074196815, -0.050094482, -0.40694016, 0.35151608, 0.079083004, -0.10995427, 0.041558295, 0.24371013, 0.41616086, 0.24167132, 0.20446491, -0.16125777, 0.17407076, -0.25987468, 0.33330825, 0.46586471, -0.039148863, 0.34717999, 0.82124857, 0.73421912, -0.32218619, 0.69444641, -2.3781411e-05, -0.21936633, 0.61275677, -1.9469383e-10, -0.55645827, -0.42571461, -0.29915419, 0.32962083, -0.30237493, -0.11637699, 0.040427163, 0.12056484, -0.43673344, 0.4284156, 0.24787462, -0.095786358, -0.10324456, 0.77907516, 0.18954153, 0.079933588, 0.30012268, -0.27555064, 0.45870217};
alignas(64) inline constexpr float B1[] = {0.16336309, 0.25697217, 0.19889432, -0.10557416, 0.076476646, 0.094064874, 0.19437721, 0.22932775, 0.065742888, -0.077401097, -0.0068194906, 0.33206587, -0.3056512, 0.30267599, -0.020849407, 0.34797844, -0.14487246, 0.42409096, -0.10739407, -0.22287782, 0.1988761, 0.17613649, 0.047410032, -0.36313074, -0.19690332, -0.070613931, 0.015104891, 0.35593261, 0.23700593, 0.23829371, -0.089543292, 0.15273286};
alignas(64) inline constexpr float W2[] = {0.51755, -0.075876204, -0.14375777, 0.5578957, -0.31595556, -0.34180832, -0.56294328, 0.49810104, -0.36040484, -0.14646763, 0.42396862, -0.52067123, -0.30263025, 0.51351559, 0.67539882, 0.50367328, -0.28110102, 0.29457327, 0.31607731, -0.11668078, -0.40626894, 0.5489838, -0.27906859, 0.18471159, -0.18526283, 0.30208901, -0.50504798, -0.42097833, -0.49794487, -0.46003397, -0.30747633, -0.32235252};
alignas(64) inline constexpr float B2[] = {0.27777146};
