#pragma once

inline constexpr int N_INPUTS = 5;
inline constexpr int N_LAYERS = 2;
inline constexpr int LAYER_SIZES[] = {32, 32};
inline constexpr float INPUT_MEANS[] = {-0.18456134, 0.2781888, 0.027770968, 0.014962765, 6.2567964};
inline constexpr float INPUT_STDS[] = {0.47300375, 0.4380939, 0.486274, 0.5265155, 4.4545264};
alignas(64) inline constexpr float W0[] = {0.076157965, 0.3973505, -0.38247502, -0.081190936, -0.49052337, -0.5520631, -0.28898442, -0.17973784, 0.10807079, 0.003906256, 0.087500535, 0.43200502, -0.14098887, -0.003403722, -0.06932417, 0.14894733, 0.02669052, 0.21024314, -0.602233, -0.36698827, 0.16644621, 0.051040146, -0.13686322, 0.034907892, 0.4899146, 0.47783917, -0.06394004, -0.46722883, -0.4053361, 0.324155, -0.40338752, -0.14107904, 0.35439578, 0.48153955, 0.5047281, -0.044864103, -0.039713684, 0.1919962, -0.6280237, 0.14057371, 0.568737, 0.003185331, -0.38166597, 0.2537472, -0.35806766, -0.0011723381, 0.16113207, -0.08897517, -0.054852072, -0.1952357, -0.450144, 0.17091963, -0.39226842, 0.046865325, 0.30530778, -0.25551268, -0.15091324, -0.29668194, 0.11104721, 0.3165804, -0.2632252, -0.09515983, 0.019614134, -0.034855887, -1.0757598, -0.02951965, -0.040404957, 0.5636596, 0.7999183, 0.0476458, 0.7849066, -1.628682, -0.21114233, 1.5369749, -0.15359648, -0.046365827, 0.29319176, -0.84080905, -0.020709394, 0.0065368023, 0.32243118, -0.31010762, 0.12845287, 0.55705494, -0.026057674, 1.1796753, 0.019405073, 0.30755928, 0.14152136, 0.28595737, -1.5144945, 0.12263336, -1.0634283, 0.60311943, 0.13099663, -0.54460204, 0.44826928, -0.14682458, -0.746391, 0.07564338, 0.008820979, -0.102484755, 0.037106868, -0.021432763, 0.3910767, -0.04023568, -0.26241192, 0.3460003, -0.039923392, 1.7086707, -0.7527138, -0.6490882, 1.1322744, 0.46731094, -0.41728255, 0.4570071, 0.024054896, 0.26017994, -0.10842838, -0.26500612, -0.40228796, -0.7647165, -1.3188232, -0.22267228, 0.81167865, 0.05821258, -0.14388153, 0.61146486, -0.30210844, -0.29171938, 0.15910783, 0.10346411, 0.11672111, -0.40306148, 0.096523486, 0.14092968, 0.24341102, -0.01351581, 0.8185105, 0.26846826, 0.17968842, 0.07651422, -0.41806892, -0.5644016, 0.04308995, -0.34531954, -0.096269175, -0.1518977, 0.40171137, -0.6109544, -0.232632, 0.94495815, 0.57684, 0.20655268, -0.018988376, 0.12913452, -0.28252432, -0.26124114, 0.7815181, 0.9018343};
alignas(64) inline constexpr float B0[] = {-0.20063633, 0.1501605, 0.27767017, 0.48395362, 0.11203185, -0.42288363, -0.21716335, -0.1659587, 0.26386166, 0.046245094, -0.03238398, 0.5566619, 0.29032892, 0.09318629, -0.12096225, -0.008376175, 0.14116606, 0.06331652, -0.026653295, 0.10282805, 0.18595661, -0.013476948, 0.32004535, -0.41179487, -0.22341008, 0.3476437, -0.24924873, 0.15790369, 0.03097904, 0.5946733, -0.09031277, -0.62143165};
alignas(64) inline constexpr float W1[] = {0.6724025, 0.08578181, 0.09712752, 0.44513753, -0.74382555, -0.69807637, -0.2507639, 0.45761445, -0.07519972, -0.30891055, 0.48069885, -0.20487027, -0.06115264, 0.18405646, 0.3655627, 0.59085965, 0.17789136, 0.4833797, 0.16125825, 0.43862242, -0.35944694, -0.01729125, -0.64877516, -0.0033686163, 0.12492494, 0.56330746, -0.25392666, -0.625836, -0.39166108, -0.45433164, -0.28032205, -0.03496214, 0.28794193, 0.2842413, -0.11507528, 0.4327387, 0.15151031, 0.014435178, -0.013407105, 0.17704058, 0.0051108534, -0.56732386, 0.22166999, -0.04040376, -0.1232543, 0.2631861, 0.26375002, 0.57005167, -0.19515601, 0.4718178, 0.2827604, -0.31874892, 0.008891464, 0.29012367, -0.2140673, -0.07735668, -0.5260198, 0.50942916, -0.41636497, 0.15447967, -0.24472813, 0.16146448, -0.09927839, -0.004687461, 0.34104845, 0.051156845, -0.23945364, 0.22316296, 0.1856672, 0.28057188, 0.2439008, 0.2717894, 0.23981333, -0.10623612, 0.30814204, 0.060184915, -0.07696926, 0.05750927, 0.20915703, 0.13608451, -0.04475119, 0.15990168, 0.45994252, 0.021016084, -0.28872043, 0.13206151, -0.014793107, 0.12772408, 0.32830864, 0.44025114, 0.3062262, -0.062479824, -0.18093212, 0.2661639, -0.14434041, 0.0686437, -0.024175396, 0.28199828, 0.12635463, 0.08743902, 0.14922203, 0.19394131, 0.06960139, -0.36126888, 0.050409902, -0.07931994, 0.23520331, -0.046019755, 2.4046e-41, 0.13745375, 0.116427355, 0.017914968, -0.11428585, -0.10507924, -0.20025662, -0.08926271, 0.16402723, -0.18698697, 0.43416417, 0.19123611, 0.027695922, -0.32343856, 0.14632046, 0.13979177, 0.2560496, -0.06076451, -0.047872573, 0.3324677, -0.056908756, 0.123123534, -0.010913678, -0.29221842, 0.19015282, 0.30792746, 0.067507, -0.043387666, 0.15792163, 0.48133013, -0.24802609, 0.40660223, -0.12021251, -0.18242112, 0.3741428, -0.42698717, 0.08965628, 0.11045419, 0.05452793, -0.16214052, 0.4143345, 0.19519216, 0.4790643, 0.15774591, 0.2469757, -0.074905746, 0.20434354, 0.3452571, 0.41843736, -0.06480465, 0.21006265, 0.3581411, 0.25953558, -0.31550303, -0.07717533, 0.08026136, -0.015255079, -0.24711597, 0.014055546, 0.47116265, -0.39441288, -0.7915271, 0.4447278, -0.07974685, 0.2367393, 0.2968405, 0.6053249, 0.35654786, 0.059212323, -0.015346253, 0.12235143, -0.42631736, -0.34789106, 0.3294108, -0.39815506, -3.1121164e-07, -1.0608665, 0.3497984, 0.0021167472, -0.3489772, -0.1726802, -0.123108104, 0.21134877, -0.35367534, -0.6895211, 0.21643405, 0.23628174, -0.10558733, -0.08985362, 0.23617807, -0.02805041, 0.12439811, -0.14500166, -0.47812137, -0.05277977, 0.33134347, -0.0, 0.054801624, -0.5828748, -0.067323424, 0.45168385, 0.087374136, -0.34560406, -0.09233059, 0.080335625, 0.17622942, 0.028950632, -0.18782747, -0.10565569, -0.14346714, -0.010132285, 0.20098397, 0.31781575, 0.23834929, 0.2525416, 0.028756764, 1.1382331, -0.39583498, -0.032461762, 0.34611258, -1.3892432, -1.6294055, -1.5122732, 0.0009358307, -0.5811872, 0.7483426, 0.081170425, -0.4400676, -0.06262735, 0.51766044, 0.43768853, 1.0120243, -0.31763285, 0.3731583, 0.5978959, 0.30821788, 0.0099432655, 0.04800267, -0.9278399, -0.25363463, 1.2463471, 0.23024492, -0.63930863, -1.4846325, -0.069148324, -0.4725409, 0.13691711, -0.16570807, -0.13796228, -0.054231577, -0.060902283, 0.04674234, 0.35002232, 0.48955533, 0.29713932, 0.06028807, 0.39803296, 0.13335873, 0.0023989305, 0.03170466, -0.05896453, 0.10163431, -0.14868404, -0.04284156, 0.017620305, -0.09763307, 0.18523978, 0.059820216, 0.13496058, -0.016321924, 0.43023893, -0.1446388, 0.06458881, 0.10854418, 0.53476197, -0.09518617, 0.24524194, 0.35133663, -0.2551005, 0.12836462, 1.1218694, -0.29058114, -0.4143012, 0.6261808, -0.9700099, -0.8531312, -0.9846196, 0.23768264, -0.86992586, -0.49027497, 0.6017144, -0.47026077, -0.045826647, 0.5946382, 0.8484389, 1.3622383, 0.0643713, 0.90885675, 0.9592671, 0.24086638, -0.79370445, 0.38670647, -0.8760798, -0.24355878, 0.11577491, 0.65872395, -0.6108975, -1.2209294, -0.447831, -1.0122921, -0.09730207, -0.7740993, -1.2330118, -0.08183631, 0.20783918, -0.1340851, 0.29030058, 0.056783903, 0.14873151, 0.18764877, 0.5947473, 0.5050054, 0.1305442, 0.41756016, 0.0, -0.40208584, -1.1055411, -0.39680675, -0.1413726, -0.22330008, 0.13344479, 0.07973894, 0.40332112, 0.030328041, 0.45046675, 0.004163008, 0.8956384, -0.16903225, 0.64991057, 0.019863017, 0.13080865, 0.30116633, 0.07641898, 0.11889189, -0.10238717, -0.22843713, 0.3350878, -0.20712504, 0.451986, 0.10278098, 0.108087406, -0.15394706, 0.38803294, 0.27828822, -0.16411342, 0.13904747, -0.0, -0.03134916, 0.20005862, -0.17789009, -0.49134913, -0.08915276, 0.037959382, -0.08870198, 0.26198947, 0.13674262, 0.24623436, 0.19097506, 0.23827295, -0.24091221, 0.38085106, 0.4140844, 0.36030963, 0.26768366, 0.27330378, 0.21543977, -0.2709956, 0.15792787, 0.18626983, -0.1115054, 0.2958083, -0.01971477, 0.27409938, -0.20806932, 0.23787455, -0.033161957, 0.14120905, 0.015489397, -0.014956822, 0.101197995, -0.11222945, 0.19205418, 0.2664944, -0.2219459, -0.09122085, -0.18374042, -0.12829608, -0.089651026, -0.13168055, -0.2851458, 0.00052830414, 0.21612328, -0.2801869, -0.06890181, -0.0667982, 0.36141807, 0.21595682, 0.13236845, 0.89539576, -0.3868902, -0.49684379, 0.7748116, -1.2668625, -1.5610789, -1.8104244, 0.77628726, -1.1292803, -0.039804034, 0.61252266, -1.0801476, 6.786492e-35, 0.7103208, 0.49525574, 1.5651029, -0.44675145, 0.5122568, 0.78600043, 0.31188402, -0.38191018, 0.6128295, -1.6289835, 0.12131454, 0.4340371, 0.7911726, -0.782699, -1.8499893, -0.34307936, -1.6065316, -0.24379265, -0.83827114, 0.1440112, 0.14738429, -0.19728075, 0.15014419, -0.16589823, -0.36509347, -0.31546417, -0.12540446, -0.1376907, -0.3017317, 0.078554764, -0.3471231, 0.1500382, -0.049020793, 0.5366353, 0.16255951, -0.033403933, -0.10117103, 0.35667154, -0.35015061, -0.10191204, 0.29239774, -0.22395933, -0.017596584, -0.4574144, 0.36373132, 0.21613675, -0.37355143, 0.10826959, -0.44767445, 0.11642508, -0.11429522, 0.5612703, 0.07954542, 0.024961893, 0.41868076, -0.45507404, -0.4165075, 0.23186965, 0.34163105, -0.23289867, -0.1563395, 0.2626484, 0.0950948, -0.0779907, 0.29885367, 0.5824248, 0.32381403, 0.16988012, 0.25975233, -0.16245033, 0.118657544, 0.13851781, -0.023910513, -0.059831414, -0.18940966, -0.34542176, 0.38438502, -0.41220677, -0.25282344, -0.29159728, -0.18862489, 0.006412116, -0.22414644, 0.49671125, -0.17759134, 0.064599894, 0.11585119, -0.8006796, -0.25987378, -0.4615528, 0.11587221, -0.62558097, 0.11609776, 0.41502815, -0.29964948, 0.13017246, 0.15090393, 0.446156, 0.18718359, -0.033091072, 0.44796374, 0.25300226, 0.24105538, -0.14731279, 0.16582637, -0.027354626, -0.26254606, 0.15436332, 0.48911998, -0.43018487, -0.6711221, 0.06353817, -0.51755136, 0.08069972, -0.164738, 0.70300114, 0.019114433, 0.039757103, -0.10928973, -0.113552794, -0.5328397, -0.1938854, 0.42761767, -0.5898407, 0.22884253, 0.43428555, -0.2499053, 0.0, 0.37416536, 0.35067037, 0.17657734, 0.1524096, 0.46745878, 0.20334037, 0.18501097, -0.2104005, 0.30624452, -0.2416922, 0.019357173, -0.48269787, 0.5175044, -0.48400185, -0.48450378, -0.39882103, -0.41671667, 0.0013925515, -0.16213576, 0.4026866, 0.10980804, 0.04656409, 0.25505084, 0.031297754, -0.09081988, 0.052253064, -0.060917795, -0.50716853, -0.95034873, 0.09022901, -0.165437, -0.039498612, 0.42374408, 0.08754987, 0.51836795, 0.36686504, 0.0870334, 0.36341017, -0.2944191, -0.24917749, 0.31647095, -0.040180933, -0.114726186, -0.71052676, 0.28160867, -0.79259247, 0.1411629, -0.11543501, 0.025685616, -0.087219514, 0.09793146, 0.054909047, -0.08068637, 0.23664895, 0.097229764, 0.19127655, 0.5645322, 0.10273126, -0.045568, 0.35435072, 0.28532413, -0.30186805, 0.21483366, 1.8080029e-05, -0.27244657, 0.08473554, -0.3994762, -0.119960524, -0.37065107, -0.074796885, 0.42674893, 0.3058023, -0.2687456, 0.36835295, -0.23069832, 0.42429635, -0.2969667, 0.32603127, -0.028900003, 0.27659905, 0.29224443, 0.09428482, 0.293858, -0.6621641, -0.23451538, 0.09636207, 0.15144052, -0.055607736, 0.16930842, 0.06587668, -0.11403696, 0.010482527, 0.075666524, -0.23811364, 0.327132, -1.4683e-41, -0.11855212, -0.399576, -0.12756546, -0.13350637, -0.21351446, 0.16533415, 0.23749462, 0.17368828, -0.25722638, 0.19825934, 0.2282063, 0.35247922, 0.1670499, 0.19696882, 0.16142909, 0.15245295, 0.09554639, 0.06863341, 0.16734783, 0.8432178, -0.06851891, -0.12945287, 0.4865072, -0.8498769, -0.21052483, -0.6399206, -0.015948534, -0.5069471, -0.039733764, 0.3396883, -0.5797468, 0.0, -0.029596645, 0.57399136, 0.68104243, -0.16541459, 0.09880652, 0.4356788, -0.011522872, -0.024537414, 0.22577247, -0.34435868, -0.31071448, 0.3106136, 0.22236885, -0.61900824, -0.6617897, -0.2961353, -0.47023395, 0.20043895, -0.36570486, 0.28608245, 0.043958627, 0.19243772, -0.020313395, -0.07370561, 0.2829269, -0.109167695, 0.34471563, 0.06356647, -0.3960359, 0.37566385, -0.20173852, -0.0049025337, -0.22306737, 0.13846248, -0.08913442, 0.026617732, 0.36234614, 0.2944197, -0.19507608, 0.08383745, 0.24165422, 0.19719128, 0.02199479, -0.6765286, -0.008120157, 0.024109537, 0.25743726, -0.03704065, 0.005284293, 0.11918376, -0.028114365, -1.1957426, -0.18804225, -0.22091338, -0.13861984, 0.08705658, 0.13511157, 0.023951966, 0.22491486, 0.19525978, 0.6125703, -0.1136665, 0.30094683, 8.844669e-35, -0.32812193, -1.1706829, 0.05017589, -0.40012413, 0.056948397, -0.2277031, -0.09034956, -0.2636469, -0.16115312, 0.20170605, 0.05516033, 0.7329428, -0.34598997, 0.97847176, -0.257213, 0.19154204, 0.07609739, -0.08444761, 0.13824895, 0.11618979, -0.21757367, 0.14924517, 0.22756264, 0.1270225, -0.04619174, -0.014990553, -0.20049743, 0.7156977, 0.51381993, 0.05039657, 0.37722233, -0.0, 0.22733349, -0.22380939, 0.033456538, -0.6668612, -0.027892338, -0.18099678, 0.26735735, -0.21688749, -0.13255525, 0.5343189, -0.22068202, 0.24099325, 0.16465205, 0.68405986, -0.24752724, 0.3094197, 0.4760189, 0.19353674, -0.06825016, 0.4714417, -0.22643572, -0.15929474, 0.5104386, -0.37337837, -0.041558303, -0.18756488, 0.38762388, -0.27486196, 0.26077965, 0.39260295, 0.0012093645, -0.024130693, 0.07518536, 0.18199906, 0.28905943, -0.4190433, 0.3720584, 0.36275095, -0.024087192, -0.039932244, 0.2563445, -0.17643958, -0.2650547, -0.4446643, 0.15369777, -0.4547422, -0.079690434, -0.16489556, 0.030607646, -0.14793296, -0.015409443, 1.3356427, -1.0903522, -0.28227374, 0.68355066, -1.193969, -1.3374774, -1.8876576, 0.41372144, -1.3379525, 0.22677353, 0.9284172, -1.2491187, -0.023506973, 0.5075881, 1.1866405, 1.4720824, -0.4030762, 0.7370146, 0.60628265, 0.45014578, -0.25358638, 0.6981787, -0.93972355, -0.12013037, 1.1802635, 0.8376279, -1.4158516, -1.3063127, -0.64102024, -1.2295107, 0.26426435, -0.6284076, 0.14164911, 0.18453747, -0.08640809, 0.14229234, 0.3089144, -0.109641925, -0.061421294, 0.16482309, 0.2039912, 0.13224213, -0.013333236, 0.02833419, 0.18272272, -0.08216645, -0.06351967, 0.29789346, -0.28430104, 0.19823165, 0.18797965, -0.39803442, 0.14378412, 0.101457395, 0.19144431, 0.16452302, -0.10300374, 0.28051007, 0.27321982, -0.0792325, -0.0748991, 0.14278656, -0.3479127, -0.14420998, 0.11311493, 0.077021696, -0.17903581, 0.55430216, -0.48814833, -0.37574446, -0.19662587, 0.34554073, -0.83563143, -0.32496926, 0.5782291, -0.18088046, -0.11367338, 0.44291416, -0.021479767, 0.36531296, 0.20314915, 0.37430146, 0.5142928, -0.025581697, -0.039977692, 0.51076, -0.4117957, -0.25732926, -0.11600848, 0.3047271, -0.95417714, -0.18239625, -0.56772035, -0.44052607, 0.0741338, -0.5950212, -0.063278586, -0.18378663, 0.4851522, -0.061192304, 0.08735269, 0.5787537, 0.27123672, -0.22125585, 0.30165672, -0.016825058, -0.11979539, 0.15205218, -0.01978617, -0.08064918, 0.14448029, -0.17624451, 0.20243607, 0.014100303, 0.08939543, 0.21055087, -0.09025243, 0.006087709, 0.2916887, 0.04877771, -0.19952662, 0.17778087, 0.5393327, 0.34055242, 0.26494336, -0.0018746629, 0.27639553, 0.35274646, 0.04535904, -0.3257399, -0.10708618, -0.15981942, 0.043260086, 0.45382348, 0.17236999, 0.10782386, 0.19822502, 0.8241923, -0.34244666, 0.12442961, 1.08669e-40, 0.09598281, -0.07192348, -0.09347569, 0.0052901385, -0.36921102, -0.29885048, 0.5182738, -0.08870746, -0.42745638, 0.33111203, 0.080130756, 1.0331901, 0.015342743, 0.44851258, 0.29935938, 0.20955548, 0.15739015, 0.080438435, 0.13642862, -1.3503965, -0.1443385, 0.7403464, -0.37413478, 0.37489802, 1.2772866, 0.7151851, -0.7781009, 0.8774592, 1.7803757, -1.04555, 0.90049154, 0.0, -0.84865606, -1.2054473, -1.3229645, 0.26057333, -1.0238767, -0.6291507, 1.3743016, 0.32511863, -1.2082283, 0.8534723, 0.23349029, 1.7516007, -0.9817528, 1.5894841, 0.26836085, 0.26938647, 0.25816652, 0.8457632, 0.7196584};
alignas(64) inline constexpr float B1[] = {0.070033014, 0.34703368, 0.33616376, -0.17690597, 0.12064973, 0.2444472, 0.27838194, 0.122837864, 0.18722607, -0.0035095054, -0.078888, 0.48402166, -0.30645582, 0.11719227, -0.0680595, 0.21884395, -0.115975276, 0.32136112, -0.21844292, -0.16463457, 0.3170964, 0.10701166, 0.15333313, -0.3627471, -0.30704176, -0.15609154, 0.16572838, 0.46822715, 0.3718225, 0.30834913, -0.07934006, 0.3024722};
alignas(64) inline constexpr float W2[] = {1.0986981, -0.32323733, -0.32673413, 0.780388, -0.7055242, -0.6613771, -1.1705796, 0.65862364, -0.77584285, -1.8943472, 0.60985774, -0.77049893, -0.08073926, 0.62533826, 1.216349, 0.9368561, -0.6151598, 0.43259084, 0.5261133, -0.6523391, -0.59847057, 0.69719154, -0.6264067, 0.18078764, -2.013873, 0.49009508, -1.191505, -0.8728821, -0.64407253, -0.7572723, -0.3824028, -0.5703076};
alignas(64) inline constexpr float B2[] = {0.15348914};
